{"learner":{"attributes":{"scikit_learn":"{\"_estimator_type\": \"classifier\"}"},"feature_names":[],"feature_types":[],"gradient_booster":{"model":{"cats":{"enc":[],"feature_segments":[],"sorted_idx":[]},"gbtree_model_param":{"num_parallel_tree":"1","num_trees":"1254"},"iteration_indptr":[0,3,6,9,12,15,18,21,24,27,30,33,36,39,42,45,48,51,54,57,60,63,66,69,72,75,78,81,84,87,90,93,96,99,102,105,108,111,114,117,120,123,126,129,132,135,138,141,144,147,150,153,156,159,162,165,168,171,174,177,180,183,186,189,192,195,198,201,204,207,210,213,216,219,222,225,228,231,234,237,240,243,246,249,252,255,258,261,264,267,270,273,276,279,282,285,288,291,294,297,300,303,306,309,312,315,318,321,324,327,330,333,336,339,342,345,348,351,354,357,360,363,366,369,372,375,378,381,384,387,390,393,396,399,402,405,408,411,414,417,420,423,426,429,432,435,438,441,444,447,450,453,456,459,462,465,468,471,474,477,480,483,486,489,492,495,498,501,504,507,510,513,516,519,522,525,528,531,534,537,540,543,546,549,552,555,558,561,564,567,570,573,576,579,582,585,588,591,594,597,600,603,606,609,612,615,618,621,624,627,630,633,636,639,642,645,648,651,654,657,660,663,666,669,672,675,678,681,684,687,690,693,696,699,702,705,708,711,714,717,720,723,726,729,732,735,738,741,744,747,750,753,756,759,762,765,768,771,774,777,780,783,786,789,792,795,798,801,804,807,810,813,816,819,822,825,828,831,834,837,840,843,846,849,852,855,858,861,864,867,870,873,876,879,882,885,888,891,894,897,900,903,906,909,912,915,918,921,924,927,930,933,936,939,942,945,948,951,954,957,960,963,966,969,972,975,978,981,984,987,990,993,996,999,1002,1005,1008,1011,1014,1017,1020,1023,1026,1029,1032,1035,1038,1041,1044,1047,1050,1053,1056,1059,1062,1065,1068,1071,1074,1077,1080,1083,1086,1089,1092,1095,1098,1101,1104,1107,1110,1113,1116,1119,1122,1125,1128,1131,1134,1137,1140,1143,1146,1149,1152,1155,1158,1161,1164,1167,1170,1173,1176,1179,1182,1185,1188,1191,1194,1197,1200,1203,1206,1209,1212,1215,1218,1221,1224,1227,1230,1233,1236,1239,1242,1245,1248,1251,1254],"tree_info":[0,1,2,0,1,2,0,1,2,0,1,2,0,1,2,0,1,2,0,1,2,0,1,2,0,1,2,0,1,2,0,1,2,0,1,2,0,1,2,0,1,2,0,1,2,0,1,2,0,1,2,0,1,2,0,1,2,0,1,2,0,1,2,0,1,2,0,1,2,0,1,2,0,1,2,0,1,2,0,1,2,0,1,2,0,1,2,0,1,2,0,1,2,0,1,2,0,1,2,0,1,2,0,1,2,0,1,2,0,1,2,0,1,2,0,1,2,0,1,2,0,1,2,0,1,2,0,1,2,0,1,2,0,1,2,0,1,2,0,1,2,0,1,2,0,1,2,0,1,2,0,1,2,0,1,2,0,1,2,0,1,2,0,1,2,0,1,2,0,1,2,0,1,2,0,1,2,0,1,2,0,1,2,0,1,2,0,1,2,0,1,2,0,1,2,0,1,2,0,1,2,0,1,2,0,1,2,0,1,2,0,1,2,0,1,2,0,1,2,0,1,2,0,1,2,0,1,2,0,1,2,0,1,2,0,1,2,0,1,2,0,1,2,0,1,2,0,1,2,0,1,2,0,1,2,0,1,2,0,1,2,0,1,2,0,1,2,0,1,2,0,1,2,0,1,2,0,1,2,0,1,2,0,1,2,0,1,2,0,1,2,0,1,2,0,1,2,0,1,2,0,1,2,0,1,2,0,1,2,0,1,2,0,1,2,0,1,2,0,1,2,0,1,2,0,1,2,0,1,2,0,1,2,0,1,2,0,1,2,0,1,2,0,1,2,0,1,2,0,1,2,0,1,2,0,1,2,0,1,2,0,1,2,0,1,2,0,1,2,0,1,2,0,1,2,0,1,2,0,1,2,0,1,2,0,1,2,0,1,2,0,1,2,0,1,2,0,1,2,0,1,2,0,1,2,0,1,2,0,1,2,0,1,2,0,1,2,0,1,2,0,1,2,0,1,2,0,1,2,0,1,2,0,1,2,0,1,2,0,1,2,0,1,2,0,1,2,0,1,2,0,1,2,0,1,2,0,1,2,0,1,2,0,1,2,0,1,2,0,1,2,0,1,2,0,1,2,0,1,2,0,1,2,0,1,2,0,1,2,0,1,2,0,1,2,0,1,2,0,1,2,0,1,2,0,1,2,0,1,2,0,1,2,0,1,2,0,1,2,0,1,2,0,1,2,0,1,2,0,1,2,0,1,2,0,1,2,0,1,2,0,1,2,0,1,2,0,1,2,0,1,2,0,1,2,0,1,2,0,1,2,0,1,2,0,1,2,0,1,2,0,1,2,0,1,2,0,1,2,0,1,2,0,1,2,0,1,2,0,1,2,0,1,2,0,1,2,0,1,2,0,1,2,0,1,2,0,1,2,0,1,2,0,1,2,0,1,2,0,1,2,0,1,2,0,1,2,0,1,2,0,1,2,0,1,2,0,1,2,0,1,2,0,1,2,0,1,2,0,1,2,0,1,2,0,1,2,0,1,2,0,1,2,0,1,2,0,1,2,0,1,2,0,1,2,0,1,2,0,1,2,0,1,2,0,1,2,0,1,2,0,1,2,0,1,2,0,1,2,0,1,2,0,1,2,0,1,2,0,1,2,0,1,2,0,1,2,0,1,2,0,1,2,0,1,2,0,1,2,0,1,2,0,1,2,0,1,2,0,1,2,0,1,2,0,1,2,0,1,2,0,1,2,0,1,2,0,1,2,0,1,2,0,1,2,0,1,2,0,1,2,0,1,2,0,1,2,0,1,2,0,1,2,0,1,2,0,1,2,0,1,2,0,1,2,0,1,2,0,1,2,0,1,2,0,1,2,0,1,2,0,1,2,0,1,2,0,1,2,0,1,2,0,1,2,0,1,2,0,1,2,0,1,2,0,1,2,0,1,2,0,1,2,0,1,2,0,1,2,0,1,2,0,1,2,0,1,2,0,1,2,0,1,2,0,1,2,0,1,2,0,1,2,0,1,2,0,1,2,0,1,2,0,1,2,0,1,2,0,1,2,0,1,2,0,1,2,0,1,2,0,1,2,0,1,2,0,1,2,0,1,2,0,1,2,0,1,2,0,1,2,0,1,2,0,1,2,0,1,2,0,1,2,0,1,2,0,1,2,0,1,2,0,1,2,0,1,2,0,1,2,0,1,2,0,1,2,0,1,2,0,1,2,0,1,2,0,1,2,0,1,2,0,1,2,0,1,2,0,1,2,0,1,2,0,1,2,0,1,2,0,1,2,0,1,2,0,1,2,0,1,2,0,1,2,0,1,2,0,1,2,0,1,2,0,1,2,0,1,2,0,1,2,0,1,2,0,1,2,0,1,2,0,1,2,0,1,2,0,1,2,0,1,2,0,1,2,0,1,2,0,1,2,0,1,2,0,1,2,0,1,2,0,1,2,0,1,2,0,1,2,0,1,2,0,1,2,0,1,2,0,1,2,0,1,2,0,1,2,0,1,2,0,1,2,0,1,2,0,1,2,0,1,2,0,1,2,0,1,2,0,1,2,0,1,2,0,1,2,0,1,2,0,1,2,0,1,2,0,1,2,0,1,2,0,1,2,0,1,2,0,1,2,0,1,2,0,1,2,0,1,2,0,1,2,0,1,2,0,1,2,0,1,2,0,1,2,0,1,2,0,1,2,0,1,2,0,1,2,0,1,2,0,1,2,0,1,2,0,1,2,0,1,2,0,1,2,0,1,2,0,1,2,0,1,2,0,1,2,0,1,2,0,1,2,0,1,2,0,1,2,0,1,2,0,1,2,0,1,2,0,1,2,0,1,2,0,1,2,0,1,2,0,1,2,0,1,2,0,1,2,0,1,2],"trees":[{"base_weights":[-1.5619976E-2,4.6981752E-2,-6.715366E-3,-7.281656E-2,1.6318917E-1,-5.9426404E-3,-0E0,4.9647385E-1,-6.411652E-2,-1.7627937E-1,2.8150156E-1,9.618907E-4,1.7396942E-2,1.9267249E-1,-5.8359723E-3,-6.182716E-3,-0E0,9.1196885E-3,-8.5531216E-4,-8.046161E-4,6.451461E-3],"categories":[],"categories_nodes":[],"categories_segments":[],"categories_sizes":[],"default_left":[0,0,0,0,0,0,0,0,0,0,0,0,0,0,0,0,0,0,0,0,0],"id":0,"left_children":[1,3,-1,5,7,-1,9,11,13,15,17,-1,-1,19,-1,-1,-1,-1,-1,-1,-1],"loss_changes":[2.7395682E0,1.3884954E0,0E0,1.148466E0,3.9955993E0,0E0,2.237883E0,4.136399E0,2.5731304E0,7.720313E-1,1.6790301E0,0E0,0E0,1.0046867E0,0E0,0E0,0E0,0E0,0E0,0E0,0E0],"parents":[2147483647,0,0,1,1,3,3,4,4,6,6,7,7,8,8,9,9,10,10,13,13],"right_children":[2,4,-1,6,8,-1,10,12,14,16,18,-1,-1,20,-1,-1,-1,-1,-1,-1,-1],"split_conditions":[6E0,1.9E1,-6.715366E-3,1E0,3E0,-5.9426404E-3,7.41E-2,4E0,4E0,1.2E1,1.3E1,9.618907E-4,1.7396942E-2,1E1,-5.8359723E-3,-6.182716E-3,-0E0,9.1196885E-3,-8.5531216E-4,-8.046161E-4,6.451461E-3],"split_indices":[4,1,0,44,25,0,20,18,18,3,3,0,0,3,0,0,0,0,0,0,0],"split_type":[0,0,0,0,0,0,0,0,0,0,0,0,0,0,0,0,0,0,0,0,0],"sum_hessian":[9.409379E1,8.154266E1,1.2551124E1,3.8989784E1,4.255288E1,7.3327374E0,3.1657047E1,1.6652243E1,2.5900635E1,1.9265545E1,1.2391501E1,1.0844801E1,5.8074427E0,1.2921171E1,1.2979464E1,7.811742E0,1.1453803E1,6.954107E0,5.437395E0,5.3977284E0,7.5234427E0],"tree_param":{"num_deleted":"0","num_feature":"59","num_nodes":"21","size_leaf_vector":"1"}},{"base_weights":[9.418747E-2,-2.7204653E-2,4.3881884E-1,1.7705642E-1,-1.8406667E-1,2.569465E-1,1.3419981E-2,4.3312597E-1,-1.2801771E-1,3.844703E-3,-2.634743E-1,3.9014813E-1,-2.3561267E-3,1.1000473E-2,-0E0,5.1897434E-3,-7.2205374E-3,-1.0139995E-2,-5.8271766E-2,1.2158114E-1,1.0863289E-2,4.623064E-3,-1.8165721E-1,-2.7474132E-3,7.0876083E-3,-7.2205374E-3,5.57202E-4],"categories":[],"categories_nodes":[],"categories_segments":[],"categories_sizes":[],"default_left":[0,0,0,0,0,0,0,0,0,0,0,0,0,0,0,0,0,0,0,0,0,0,0,0,0,0,0],"id":1,"left_children":[1,3,5,7,9,11,-1,13,15,-1,17,19,-1,-1,-1,-1,-1,-1,21,23,-1,-1,25,-1,-1,-1,-1],"loss_changes":[5.8144436E0,3.4259393E0,1.5678701E0,3.848524E0,2.226372E0,1.8531767E0,0E0,2.3154569E0,3.320994E0,0E0,3.1613295E0,1.1147764E0,0E0,0E0,0E0,0E0,0E0,0E0,1.7447405E0,1.7298561E0,0E0,0E0,1.7195591E0,0E0,0E0,0E0,0E0],"parents":[2147483647,0,0,1,1,2,2,3,3,4,4,5,5,7,7,8,8,10,10,11,11,18,18,19,19,22,22],"right_children":[2,4,6,8,10,12,-1,14,16,-1,18,20,-1,-1,-1,-1,-1,-1,22,24,-1,-1,26,-1,-1,-1,-1],"split_conditions":[1.379E-1,1.2606103E1,1E0,6.06E-2,7E0,1.3E1,1.3419981E-2,2.07965E5,2E0,3.844703E-3,3.85E-2,1E0,-2.3561267E-3,1.1000473E-2,-0E0,5.1897434E-3,-7.2205374E-3,-1.0139995E-2,5.77E-2,3E0,1.0863289E-2,4.623064E-3,1E0,-2.7474132E-3,7.0876083E-3,-7.2205374E-3,5.57202E-4],"split_indices":[20,26,34,20,3,3,0,0,6,0,20,8,0,0,0,0,0,0,20,19,0,0,30,0,0,0,0],"split_type":[0,0,0,0,0,0,0,0,0,0,0,0,0,0,0,0,0,0,0,0,0,0,0,0,0,0,0],"sum_hessian":[1.2468917E2,9.321402E1,3.1475153E1,3.9253876E1,5.3960144E1,2.4139917E1,7.3352365E0,2.1420725E1,1.7833153E1,7.2665257E0,4.669362E1,1.8768454E1,5.371464E0,1.418224E1,7.2384853E0,6.5631113E0,1.12700405E1,1.5667323E1,3.1026295E1,1.1379421E1,7.3890314E0,6.847003E0,2.417929E1,5.6553555E0,5.724066E0,1.12700405E1,1.2909251E1],"tree_param":{"num_deleted":"0","num_feature":"59","num_nodes":"27","size_leaf_vector":"1"}},{"base_weights":[-0E0,2.6855394E-1,-1.01694025E-1,4.0286535E-1,-1.3776046E-3,-2.5970286E-1,1.7672239E-1,6.10877E-1,-5.3287693E-4,-3.294562E-1,3.454129E-3,-9.029595E-3,1.12760775E-2,1.3491475E-2,1.8833348E-3,-7.0582232E-3,8.586644E-4,5.714499E-3,-2.5951037E-1,-0E0,-9.386853E-3],"categories":[],"categories_nodes":[],"categories_segments":[],"categories_sizes":[],"default_left":[0,0,0,0,0,0,0,0,0,0,0,0,0,0,0,0,0,0,0,0,0],"id":2,"left_children":[1,3,5,7,-1,9,11,13,-1,15,-1,17,-1,-1,-1,-1,-1,-1,19,-1,-1],"loss_changes":[3.8121376E0,2.0376134E0,4.5000267E0,2.8876505E0,0E0,2.388661E0,3.6225533E0,1.1710052E0,0E0,1.8317881E0,0E0,2.89643E0,0E0,0E0,0E0,0E0,0E0,0E0,1.5468984E0,0E0,0E0],"parents":[2147483647,0,0,1,1,2,2,3,3,5,5,6,6,7,7,9,9,11,11,18,18],"right_children":[2,4,6,8,-1,10,12,14,-1,16,-1,18,-1,-1,-1,-1,-1,-1,20,-1,-1],"split_conditions":[3E0,1.64E2,1.3E1,2.8E1,-1.3776046E-3,6.9E1,3.8E1,1E0,-5.3287693E-4,1E0,3.454129E-3,1.4E1,1.12760775E-2,1.3491475E-2,1.8833348E-3,-7.0582232E-3,8.586644E-4,5.714499E-3,1E0,-0E0,-9.386853E-3],"split_indices":[5,14,3,1,0,1,1,40,0,42,0,15,0,0,0,0,0,0,30,0,0],"split_type":[0,0,0,0,0,0,0,0,0,0,0,0,0,0,0,0,0,0,0,0,0],"sum_hessian":[1.2288658E2,3.2826347E1,9.0060234E1,2.4173712E1,8.652636E0,5.846705E1,3.1593187E1,1.6194338E1,7.9793744E0,5.2128933E1,6.3381157E0,2.3924007E1,7.66918E0,1.0585237E1,5.6091013E0,4.4290127E1,7.8388076E0,9.19842E0,1.4725588E1,8.750539E0,5.975049E0],"tree_param":{"num_deleted":"0","num_feature":"59","num_nodes":"21","size_leaf_vector":"1"}},{"base_weights":[-2.619158E-2,2.9414112E-2,-6.3817003E-3,9.2599384E-2,-1.8015206E-1,-4.5277458E-2,2.9025248E-1,5.7266763E-4,-5.629518E-3,-4.7632568E-3,7.5486764E-2,4.3994975E-1,-4.9621734E-4,-1.0341419E-1,7.197252E-3,-0E0,1.3193246E-2,-5.318395E-3,5.1896926E-4],"categories":[],"categories_nodes":[],"categories_segments":[],"categories_sizes":[],"default_left":[0,0,0,0,0,0,0,0,0,0,0,0,0,0,0,0,0,0,0],"id":3,"left_children":[1,3,-1,5,7,9,11,-1,-1,-1,13,15,-1,17,-1,-1,-1,-1,-1],"loss_changes":[2.1942976E0,1.2751356E0,0E0,2.1074247E0,8.3043355E-1,1.4612186E0,1.6918659E0,0E0,0E0,0E0,2.2023752E0,3.0886207E0,0E0,8.2048774E-1,0E0,0E0,0E0,0E0,0E0],"parents":[2147483647,0,0,1,1,3,3,4,4,5,5,6,6,10,10,11,11,13,13],"right_children":[2,4,-1,6,8,10,12,-1,-1,-1,14,16,-1,18,-1,-1,-1,-1,-1],"split_conditions":[6E0,5E1,-6.3817003E-3,2E1,3E0,1.3E1,1.3E1,5.7266763E-4,-5.629518E-3,-4.7632568E-3,1E0,1E1,-4.9621734E-4,1.1E1,7.197252E-3,-0E0,1.3193246E-2,-5.318395E-3,5.1896926E-4],"split_indices":[4,1,0,1,18,15,3,0,0,0,37,3,0,3,0,0,0,0,0],"split_type":[0,0,0,0,0,0,0,0,0,0,0,0,0,0,0,0,0,0,0],"sum_hessian":[8.991879E1,7.837568E1,1.15431185E1,6.2816303E1,1.5559373E1,3.706659E1,2.5749714E1,5.9514856E0,9.607887E0,1.2808737E1,2.4257853E1,1.7653711E1,8.096004E0,1.6297121E1,7.9607315E0,8.452834E0,9.200876E0,6.280673E0,1.0016448E1],"tree_param":{"num_deleted":"0","num_feature":"59","num_nodes":"19","size_leaf_vector":"1"}},{"base_weights":[1.8762806E-2,-2.0605406E-1,1.1173227E-1,-4.4089863E-1,8.020796E-2,2.7588782E-1,-3.987556E-2,-0E0,-1.1154754E-2,-1.3929461E-1,9.006174E-3,-0E0,4.3039882E-1,-1.0826653E-1,4.5812316E-3,2.1821451E-3,-6.4411145E-3,6.26516E-3,-9.188284E-3,5.256123E-1,-0E0,1.0508057E-1,-2.8655106E-1,1.3112208E-2,1.7151592E-3,6.3257283E-3,-2.467315E-3,1.9843476E-3,-8.019793E-3],"categories":[],"categories_nodes":[],"categories_segments":[],"categories_sizes":[],"default_left":[0,0,0,0,0,0,0,0,0,0,0,0,0,0,0,0,0,0,0,0,0,0,0,0,0,0,0,0,0],"id":4,"left_children":[1,3,5,7,9,11,13,-1,-1,15,-1,17,19,21,-1,-1,-1,-1,-1,23,-1,25,27,-1,-1,-1,-1,-1,-1],"loss_changes":[3.1326706E0,3.1684232E0,2.776548E0,2.4118247E0,2.6566877E0,2.2830715E0,1.374715E0,0E0,0E0,1.3759466E0,0E0,5.04704E0,1.4837794E0,2.1385612E0,0E0,0E0,0E0,0E0,0E0,2.2757215E0,0E0,1.9332786E0,2.3596182E0,0E0,0E0,0E0,0E0,0E0,0E0],"parents":[2147483647,0,0,1,1,2,2,3,3,4,4,5,5,6,6,9,9,11,11,12,12,13,13,19,19,21,21,22,22],"right_children":[2,4,6,8,10,12,14,-1,-1,16,-1,18,20,22,-1,-1,-1,-1,-1,24,-1,26,28,-1,-1,-1,-1,-1,-1],"split_conditions":[3E0,1E0,1.2E1,1E1,1.4E1,1.04E2,1.667E-1,-0E0,-1.1154754E-2,1.8E1,9.006174E-3,8E1,6E0,4.55E-2,4.5812316E-3,2.1821451E-3,-6.4411145E-3,6.26516E-3,-9.188284E-3,6.25E-2,-0E0,2.98373E5,4E0,1.3112208E-2,1.7151592E-3,6.3257283E-3,-2.467315E-3,1.9843476E-3,-8.019793E-3],"split_indices":[5,40,3,3,3,14,20,0,0,1,0,14,4,20,0,0,0,0,0,20,0,0,5,0,0,0,0,0,0],"split_type":[0,0,0,0,0,0,0,0,0,0,0,0,0,0,0,0,0,0,0,0,0,0,0,0,0,0,0,0,0],"sum_hessian":[1.347522E2,3.722629E1,9.752591E1,2.039743E1,1.6828861E1,4.6999332E1,5.0526577E1,6.530492E0,1.386694E1,1.181007E1,5.018791E0,1.7611872E1,2.9387463E1,4.3669315E1,6.8572598E0,5.265611E0,6.5444584E0,1.0870529E1,6.7413416E0,2.3913414E1,5.4740486E0,1.9386219E1,2.4283098E1,1.3739711E1,1.0173703E1,9.645515E0,9.740704E0,6.9010587E0,1.7382038E1],"tree_param":{"num_deleted":"0","num_feature":"59","num_nodes":"29","size_leaf_vector":"1"}},{"base_weights":[-3.9339807E-2,2.5448224E-1,-1.396789E-1,1.0780991E-2,1.0271669E-1,-1.4059656E-2,-3.204565E-1,5.9077847E-3,-2.4896914E-3,3.257648E-1,-3.0768883E-1,-1.0134889E-2,1.7895178E-1,-3.1221735E-3,4.8509887E-1,7.21277E-2,-5.3625274E-1,8.568916E-3,-1.6793554E-3,7.737535E-4,1.0650724E-2,7.3740827E-3,-5.7303915E-3,-1.1760966E-2,-2.7406125E-3],"categories":[],"categories_nodes":[],"categories_segments":[],"categories_sizes":[],"default_left":[0,0,0,0,0,0,0,0,0,0,0,0,0,0,0,0,0,0,0,0,0,0,0,0,0],"id":5,"left_children":[1,3,5,-1,7,9,11,-1,-1,13,15,-1,17,-1,19,21,23,-1,-1,-1,-1,-1,-1,-1,-1],"loss_changes":[4.177477E0,1.7357287E0,2.2813196E0,0E0,2.0829616E0,7.0495024E0,5.9111643E0,0E0,0E0,3.0273066E0,3.6369772E0,0E0,1.8926253E0,0E0,1.1215658E0,3.071087E0,8.297653E-1,0E0,0E0,0E0,0E0,0E0,0E0,0E0,0E0],"parents":[2147483647,0,0,1,1,2,2,4,4,5,5,6,6,9,9,10,10,12,12,14,14,15,15,16,16],"right_children":[2,4,6,-1,8,10,12,-1,-1,14,16,-1,18,-1,20,22,24,-1,-1,-1,-1,-1,-1,-1,-1],"split_conditions":[3E0,5E0,1E0,1.0780991E-2,1E0,1.04E2,4E1,5.9077847E-3,-2.4896914E-3,4.7E1,1.2E1,-1.0134889E-2,3E2,-3.1221735E-3,4E0,6E0,1.2E1,8.568916E-3,-1.6793554E-3,7.737535E-4,1.0650724E-2,7.3740827E-3,-5.7303915E-3,-1.1760966E-2,-2.7406125E-3],"split_indices":[5,1,43,0,49,14,1,0,0,14,1,0,14,0,5,5,5,0,0,0,0,0,0,0,0],"split_type":[0,0,0,0,0,0,0,0,0,0,0,0,0,0,0,0,0,0,0,0,0,0,0,0,0],"sum_hessian":[1.27822556E2,3.0486433E1,9.733612E1,5.7898455E0,2.4696587E1,6.042959E1,3.6906536E1,1.289474E1,1.18018465E1,2.7255808E1,3.317378E1,2.4522375E1,1.2384159E1,5.874685E0,2.1381123E1,1.2515918E1,2.0657862E1,5.48357E0,6.9005895E0,6.199185E0,1.5181938E1,7.1205034E0,5.3954144E0,1.2893926E1,7.7639356E0],"tree_param":{"num_deleted":"0","num_feature":"59","num_nodes":"25","size_leaf_vector":"1"}},{"base_weights":[7.958474E-3,1.19034596E-1,-2.6514816E-1,2.2994243E-1,-1.5361436E-1,-7.989224E-3,-8.29008E-2,-8.1284404E-2,3.5962814E-1,2.5741972E-3,-5.6311735E-3,1.7466459E-3,-4.797069E-3,-7.7430923E-3,6.0937307E-3,6.6407526E-1,3.4660216E-2,1.4765567E-2,3.93824E-3,-4.6546734E-3,1.9933276E-1,-2.3681698E-3,7.203695E-3],"categories":[],"categories_nodes":[],"categories_segments":[],"categories_sizes":[],"default_left":[0,0,0,0,0,0,0,0,0,0,0,0,0,0,0,0,0,0,0,0,0,0,0],"id":6,"left_children":[1,3,5,7,9,-1,11,13,15,-1,-1,-1,-1,-1,-1,17,19,-1,-1,-1,21,-1,-1],"loss_changes":[3.1999896E0,2.4587848E0,8.5370994E-1,2.4555955E0,1.5055451E0,0E0,1.012425E0,3.598342E0,3.7042427E0,0E0,0E0,0E0,0E0,0E0,0E0,8.832216E-1,1.5419333E0,0E0,0E0,0E0,1.7121843E0,0E0,0E0],"parents":[2147483647,0,0,1,1,2,2,3,3,4,4,6,6,7,7,8,8,15,15,16,16,20,20],"right_children":[2,4,6,8,10,-1,12,14,16,-1,-1,-1,-1,-1,-1,18,20,-1,-1,-1,22,-1,-1],"split_conditions":[5E0,1E0,1.4E1,1E1,2E0,-7.989224E-3,2.3E1,1E0,1.3E1,2.5741972E-3,-5.6311735E-3,1.7466459E-3,-4.797069E-3,-7.7430923E-3,6.0937307E-3,2E0,1.4E1,1.4765567E-2,3.93824E-3,-4.6546734E-3,1E0,-2.3681698E-3,7.203695E-3],"split_indices":[4,17,15,3,4,0,15,43,3,0,0,0,0,0,0,19,15,0,0,0,4,0,0],"split_type":[0,0,0,0,0,0,0,0,0,0,0,0,0,0,0,0,0,0,0,0,0,0,0],"sum_hessian":[9.2133675E1,6.760104E1,2.4532625E1,4.9376217E1,1.822483E1,8.915077E0,1.5617547E1,1.3932264E1,3.544395E1,5.831329E0,1.2393502E1,7.6068296E0,8.010717E0,8.016506E0,5.9157586E0,1.6218512E1,1.922544E1,9.08308E0,7.1354313E0,5.3676734E0,1.3857765E1,5.0515075E0,8.806258E0],"tree_param":{"num_deleted":"0","num_feature":"59","num_nodes":"23","size_leaf_vector":"1"}},{"base_weights":[-6.353742E-3,-3.0815378E-1,1.1005959E-1,-4.3357003E-1,2.7427466E-3,1.7589316E-2,4.002635E-1,-9.168713E-3,-0E0,2.7370328E-1,-2.0875068E-1,2.386637E-3,1.0747225E-2,3.6302203E-1,-2.1767432E-3,2.9143787E-3,-3.2601336E-1,9.609628E-3,7.120551E-3,-7.67227E-3,1.8744925E-3,-3.654652E-3,5.2658245E-3],"categories":[],"categories_nodes":[],"categories_segments":[],"categories_sizes":[],"default_left":[0,0,0,0,0,0,0,0,0,0,0,0,0,0,0,0,0,0,0,0,0,0,0],"id":7,"left_children":[1,3,5,7,-1,9,11,-1,-1,13,15,-1,-1,17,-1,-1,19,-1,21,-1,-1,-1,-1],"loss_changes":[4.9518676E0,2.6707654E0,2.5450606E0,1.2721839E0,0E0,4.841435E0,9.5536184E-1,0E0,0E0,1.6908147E0,2.1964853E0,0E0,0E0,2.0174937E0,0E0,0E0,2.006775E0,0E0,1.5105922E0,0E0,0E0,0E0,0E0],"parents":[2147483647,0,0,1,1,2,2,3,3,5,5,6,6,9,9,10,10,13,13,16,16,18,18],"right_children":[2,4,6,8,-1,10,12,-1,-1,14,16,-1,-1,18,-1,-1,20,-1,22,-1,-1,-1,-1],"split_conditions":[3E0,6E0,1.471E-1,1.538E-1,2.7427466E-3,5.2E-2,1E0,-9.168713E-3,-0E0,7E1,1E0,2.386637E-3,1.0747225E-2,1E0,-2.1767432E-3,2.9143787E-3,4E1,9.609628E-3,1E0,-7.67227E-3,1.8744925E-3,-3.654652E-3,5.2658245E-3],"split_indices":[5,4,20,20,0,20,2,0,0,1,44,0,0,40,0,0,1,0,2,0,0,0,0],"split_type":[0,0,0,0,0,0,0,0,0,0,0,0,0,0,0,0,0,0,0,0,0,0,0],"sum_hessian":[1.2423328E2,3.427601E1,8.9957275E1,2.7803255E1,6.472751E0,7.142137E1,1.85359E1,2.2507673E1,5.2955832E0,3.4052586E1,3.7368786E1,1.1120906E1,7.4149942E0,2.8812746E1,5.2398386E0,7.8267646E0,2.9542023E1,1.7210089E1,1.1602658E1,2.4125187E1,5.416835E0,6.371262E0,5.231396E0],"tree_param":{"num_deleted":"0","num_feature":"59","num_nodes":"23","size_leaf_vector":"1"}},{"base_weights":[3.4746265E-3,-1.3268927E-1,3.430381E-1,2.3768082E-1,-2.9884398E-1,5.7891995E-1,-1.3290003E-1,3.5696912E-1,-2.5618041E-3,4.9289837E-2,-3.9349034E-1,1.35186855E-2,-0E0,-6.15818E-3,1.4511927E-3,-2.25498E-3,5.3097636E-1,-2.4505805E-3,5.5768387E-3,-4.757018E-1,-8.581473E-2,1.2466332E-2,-0E0,-0E0,-9.606716E-3,2.3151804E-3,-6.150364E-3],"categories":[],"categories_nodes":[],"categories_segments":[],"categories_sizes":[],"default_left":[0,0,0,0,0,0,0,0,0,0,0,0,0,0,0,0,0,0,0,0,0,0,0,0,0,0,0],"id":8,"left_children":[1,3,5,7,9,11,13,15,-1,17,19,-1,-1,-1,-1,-1,21,-1,-1,23,25,-1,-1,-1,-1,-1,-1],"loss_changes":[6.5076265E0,6.2377076E0,4.971698E0,1.7838548E0,2.4722981E0,3.0239763E0,1.1008948E0,2.6154742E0,0E0,1.3101733E0,1.1422873E0,0E0,0E0,0E0,0E0,0E0,1.8255916E0,0E0,0E0,1.5024853E0,1.4233766E0,0E0,0E0,0E0,0E0,0E0,0E0],"parents":[2147483647,0,0,1,1,2,2,3,3,4,4,5,5,6,6,7,7,9,9,10,10,16,16,19,19,20,20],"right_children":[2,4,6,8,10,12,14,16,-1,18,20,-1,-1,-1,-1,-1,22,-1,-1,24,26,-1,-1,-1,-1,-1,-1],"split_conditions":[1.3E1,3E0,1.45E2,1.64E2,5E0,1E0,1E0,2.98373E5,-2.5618041E-3,1.7E1,3E1,1.35186855E-2,-0E0,-6.15818E-3,1.4511927E-3,-2.25498E-3,1.176E-1,-2.4505805E-3,5.5768387E-3,1.70642E5,1E0,1.2466332E-2,-0E0,-0E0,-9.606716E-3,2.3151804E-3,-6.150364E-3],"split_indices":[3,5,14,14,1,43,2,0,0,15,15,0,0,0,0,0,20,0,0,0,17,0,0,0,0,0,0],"split_type":[0,0,0,0,0,0,0,0,0,0,0,0,0,0,0,0,0,0,0,0,0,0,0,0,0,0,0],"sum_hessian":[1.25592445E2,8.9999695E1,3.5592747E1,2.6780855E1,6.321884E1,2.3956345E1,1.1636401E1,2.1360453E1,5.420402E0,1.2906424E1,5.031242E1,1.7036991E1,6.919354E0,5.8231025E0,5.8132987E0,5.2232857E0,1.6137167E1,7.492381E0,5.4140425E0,3.753208E1,1.2780338E1,1.1048764E1,5.088403E0,5.3041034E0,3.2227978E1,6.958832E0,5.8215065E0],"tree_param":{"num_deleted":"0","num_feature":"59","num_nodes":"27","size_leaf_vector":"1"}},{"base_weights":[-5.7243295E-2,4.2368863E-2,-2.9010907E-1,-1.8160379E-1,1.7000498E-1,-7.7865445E-3,-1.7662186E-3,3.340075E-2,-8.140695E-3,-2.9800665E-2,3.930308E-1,4.4596284E-3,-3.434867E-3,-2.1115452E-1,3.5732382E-3,3.6606893E-2,1.1699037E-2,-6.600988E-3,5.148172E-4,3.996281E-3,-2.4631708E-3],"categories":[],"categories_nodes":[],"categories_segments":[],"categories_sizes":[],"default_left":[0,0,0,0,0,0,0,0,0,0,0,0,0,0,0,0,0,0,0,0,0],"id":9,"left_children":[1,3,5,7,9,-1,-1,11,-1,13,15,-1,-1,17,-1,19,-1,-1,-1,-1,-1],"loss_changes":[2.6799114E0,2.369823E0,7.949128E-1,2.0608315E0,2.5180485E0,0E0,0E0,1.3353924E0,0E0,1.5681697E0,2.2525885E0,0E0,0E0,1.0202222E0,0E0,8.562754E-1,0E0,0E0,0E0,0E0,0E0],"parents":[2147483647,0,0,1,1,2,2,3,3,4,4,7,7,9,9,10,10,13,13,15,15],"right_children":[2,4,6,8,10,-1,-1,12,-1,14,16,-1,-1,18,-1,20,-1,-1,-1,-1,-1],"split_conditions":[1E0,1.3E1,1E0,1.3E1,1.2E1,-7.7865445E-3,-1.7662186E-3,1E0,-8.140695E-3,1E0,1E0,4.4596284E-3,-3.434867E-3,1E0,3.5732382E-3,1.4E1,1.1699037E-2,-6.600988E-3,5.148172E-4,3.996281E-3,-2.4631708E-3],"split_indices":[17,15,16,3,3,0,0,28,0,8,49,0,0,39,0,3,0,0,0,0,0],"split_type":[0,0,0,0,0,0,0,0,0,0,0,0,0,0,0,0,0,0,0,0,0],"sum_hessian":[9.791438E1,6.895274E1,2.8961636E1,2.3500933E1,4.5451813E1,1.2747392E1,1.6214245E1,1.3952499E1,9.548433E0,2.4285503E1,2.116631E1,7.818444E0,6.1340556E0,1.4779567E1,9.505937E0,1.11992655E1,9.967044E0,8.78643E0,5.993136E0,6.0653033E0,5.133962E0],"tree_param":{"num_deleted":"0","num_feature":"59","num_nodes":"21","size_leaf_vector":"1"}},{"base_weights":[-3.8248831E-3,3.461608E-1,-7.763096E-2,5.8902645E-1,-8.4854587E-4,-2.3997846E-1,1.1591575E-1,2.1894781E-3,1.3264365E-2,-3.2559592E-1,9.306368E-2,2.3752573E-1,-4.922176E-3,1.3486594E-1,-4.6561027E-1,-2.7501958E-3,6.031513E-3,1.0488753E-1,1.2116028E-2,-2.8566385E-3,7.843713E-3,-2.246738E-3,-9.468348E-3,7.897344E-3,-1.1327312E-2,-7.4837157E-3,3.1168687E-3],"categories":[],"categories_nodes":[],"categories_segments":[],"categories_sizes":[],"default_left":[0,0,0,0,0,0,0,0,0,0,0,0,0,0,0,0,0,0,0,0,0,0,0,0,0,0,0],"id":10,"left_children":[1,3,5,7,-1,9,11,-1,-1,13,15,17,-1,19,21,-1,-1,23,-1,-1,-1,-1,-1,-1,25,-1,-1],"loss_changes":[3.838677E0,2.7655485E0,3.9987733E0,8.351612E-1,0E0,2.1743054E0,3.0809832E0,0E0,0E0,3.9616761E0,1.4570732E0,2.5539129E0,0E0,1.9864881E0,7.920952E-1,0E0,0E0,1.9783221E0,0E0,0E0,0E0,0E0,0E0,0E0,3.1321323E0,0E0,0E0],"parents":[2147483647,0,0,1,1,2,2,3,3,5,5,6,6,9,9,10,10,11,11,13,13,14,14,17,17,24,24],"right_children":[2,4,6,8,-1,10,12,-1,-1,14,16,18,-1,20,22,-1,-1,24,-1,-1,-1,-1,-1,-1,26,-1,-1],"split_conditions":[7E0,1E0,1E0,2E0,-8.4854587E-4,1.471E-1,5E0,2.1894781E-3,1.3264365E-2,1E0,1.2E1,3.4E1,-4.922176E-3,1.3E1,1.3E1,-2.7501958E-3,6.031513E-3,4.94E-2,1.2116028E-2,-2.8566385E-3,7.843713E-3,-2.246738E-3,-9.468348E-3,7.897344E-3,8.33E-2,-7.4837157E-3,3.1168687E-3],"split_indices":[3,8,9,19,0,20,16,0,0,4,15,15,0,3,15,0,0,20,0,0,0,0,0,0,20,0,0],"split_type":[0,0,0,0,0,0,0,0,0,0,0,0,0,0,0,0,0,0,0,0,0,0,0,0,0,0,0],"sum_hessian":[1.344194E2,2.0745525E1,1.13673874E2,1.2631707E1,8.113818E0,6.2566395E1,5.110748E1,5.263777E0,7.3679304E0,5.0754787E1,1.181161E1,4.0723263E1,1.0384217E1,1.1205732E1,3.9549053E1,5.6551266E0,6.1564837E0,3.478647E1,5.9367933E0,5.771024E0,5.4347076E0,9.56659E0,2.9982464E1,7.6130238E0,2.7173445E1,8.077988E0,1.9095457E1],"tree_param":{"num_deleted":"0","num_feature":"59","num_nodes":"27","size_leaf_vector":"1"}},{"base_weights":[1.2594257E-2,-7.6459786E-3,5.3994738E-2,2.2253951E-1,-6.657325E-2,-2.142129E-2,3.518859E-1,8.786086E-2,-2.6235712E-1,-5.340164E-3,6.2794266E-3,4.405719E-1,-2.7034775E-4,8.840545E-3,-3.7595496E-2,-4.0572232E-1,3.534559E-3,8.884497E-4,1.0462147E-2,4.0000174E-3,-2.0128852E-1,-8.90802E-3,-0E0,-6.830674E-3,2.2292635E-3],"categories":[],"categories_nodes":[],"categories_segments":[],"categories_sizes":[],"default_left":[0,0,0,0,0,0,0,0,0,0,0,0,0,0,0,0,0,0,0,0,0,0,0,0,0],"id":11,"left_children":[1,-1,3,5,7,9,11,13,15,-1,-1,17,-1,-1,19,21,-1,-1,-1,-1,23,-1,-1,-1,-1],"loss_changes":[2.6868148E0,0E0,2.745921E0,1.9237287E0,2.5092967E0,2.9083524E0,1.4229198E0,2.7293255E0,2.7867513E0,0E0,0E0,1.6451116E0,0E0,0E0,1.8676547E0,1.3232546E0,0E0,0E0,0E0,0E0,1.9124231E0,0E0,0E0,0E0,0E0],"parents":[2147483647,0,0,2,2,3,3,4,4,5,5,6,6,7,7,8,8,11,11,14,14,15,15,20,20],"right_children":[2,-1,4,6,8,10,12,14,16,-1,-1,18,-1,-1,20,22,-1,-1,-1,-1,24,-1,-1,-1,-1],"split_conditions":[6E0,-7.6459786E-3,1.9E1,3.12E-2,1E0,1E0,1.5E1,3E0,5E0,-5.340164E-3,6.2794266E-3,9.4E1,-2.7034775E-4,8.840545E-3,9E0,1.3E1,3.534559E-3,8.884497E-4,1.0462147E-2,4.0000174E-3,1E0,-8.90802E-3,-0E0,-6.830674E-3,2.2292635E-3],"split_indices":[3,0,1,20,8,41,3,16,16,0,0,14,0,0,3,3,0,0,0,0,39,0,0,0,0],"split_type":[0,0,0,0,0,0,0,0,0,0,0,0,0,0,0,0,0,0,0,0,0,0,0,0,0],"sum_hessian":[1.2601542E2,7.637909E0,1.1837751E2,4.976582E1,6.861169E1,1.6977325E1,3.2788494E1,3.8072815E1,3.0538874E1,1.0617277E1,6.3600492E0,2.6835863E1,5.95263E0,7.6165814E0,3.0456234E1,2.4243038E1,6.295835E0,9.484873E0,1.735099E1,1.0270781E1,2.0185453E1,1.9159601E1,5.0834365E0,1.3238454E1,6.9469986E0],"tree_param":{"num_deleted":"0","num_feature":"59","num_nodes":"25","size_leaf_vector":"1"}},{"base_weights":[4.9135808E-2,1.2638259E-1,-5.5392226E-3,2.2686936E-1,-7.098842E-2,4.088707E-1,7.203559E-2,-4.694536E-3,1.4201724E-3,1.0283457E-3,1.1074339E-2,2.0858882E-1,-2.4119099E-3,3.2957983E-1,-9.0770854E-4,9.335016E-3,4.368131E-4],"categories":[],"categories_nodes":[],"categories_segments":[],"categories_sizes":[],"default_left":[0,0,0,0,0,0,0,0,0,0,0,0,0,0,0,0,0],"id":12,"left_children":[1,3,-1,5,7,9,11,-1,-1,-1,-1,13,-1,15,-1,-1,-1],"loss_changes":[2.79077E0,1.7130065E0,0E0,1.3739424E0,1.1273453E0,1.5639215E0,1.2416854E0,0E0,0E0,0E0,0E0,9.7357666E-1,0E0,9.329548E-1,0E0,0E0,0E0],"parents":[2147483647,0,0,1,1,3,3,4,4,5,5,6,6,11,11,13,13],"right_children":[2,4,-1,6,8,10,12,-1,-1,-1,-1,14,-1,16,-1,-1,-1],"split_conditions":[6E0,1E0,-5.5392226E-3,1E0,1E0,1.5E1,1E0,-4.694536E-3,1.4201724E-3,1.0283457E-3,1.1074339E-2,1E0,-2.4119099E-3,3E0,-9.0770854E-4,9.335016E-3,4.368131E-4],"split_indices":[4,17,0,36,36,15,8,0,0,0,0,11,0,4,0,0,0],"split_type":[0,0,0,0,0,0,0,0,0,0,0,0,0,0,0,0,0],"sum_hessian":[8.388654E1,7.161482E1,1.2271723E1,4.850088E1,2.311394E1,1.9089457E1,2.9411427E1,1.027806E1,1.283588E1,9.478914E0,9.610542E0,1.896355E1,1.0447876E1,1.3485489E1,5.478061E0,6.0797763E0,7.405712E0],"tree_param":{"num_deleted":"0","num_feature":"59","num_nodes":"17","size_leaf_vector":"1"}},{"base_weights":[-4.2621926E-3,-1.5064281E-1,2.7103668E-1,-3.990573E-1,1.7221946E-2,-0E0,3.848474E-1,-7.557805E-2,-9.669292E-3,2.6259482E-1,-2.0405135E-1,1.728303E-4,1.0269422E-2,-6.754944E-3,4.75853E-3,9.877221E-3,5.83732E-3,-4.4878933E-1,4.3935454E-3,-5.397147E-3,4.2278557E-3,-1.5039521E-3,-1.03566935E-2],"categories":[],"categories_nodes":[],"categories_segments":[],"categories_sizes":[],"default_left":[0,0,0,0,0,0,0,0,0,0,0,0,0,0,0,0,0,0,0,0,0,0,0],"id":13,"left_children":[1,3,5,7,9,-1,11,13,-1,15,17,-1,-1,-1,-1,-1,19,21,-1,-1,-1,-1,-1],"loss_changes":[5.4215803E0,3.886429E0,1.486166E0,1.5646577E0,3.337314E0,0E0,2.2679234E0,2.4345503E0,0E0,2.076622E0,3.8884656E0,0E0,0E0,0E0,0E0,0E0,1.9270427E0,8.040328E-1,0E0,0E0,0E0,0E0,0E0],"parents":[2147483647,0,0,1,1,2,2,3,3,4,4,6,6,7,7,9,9,10,10,16,16,17,17],"right_children":[2,4,6,8,10,-1,12,14,-1,16,18,-1,-1,-1,-1,-1,20,22,-1,-1,-1,-1,-1],"split_conditions":[4E0,2E0,2.56E-2,2E0,6.9E-2,-0E0,1.12E2,1E0,-9.669292E-3,3E0,1.471E-1,1.728303E-4,1.0269422E-2,-6.754944E-3,4.75853E-3,9.877221E-3,1E0,8.57E-2,4.3935454E-3,-5.397147E-3,4.2278557E-3,-1.5039521E-3,-1.03566935E-2],"split_indices":[4,6,20,25,20,0,14,40,0,18,20,0,0,0,0,0,43,20,0,0,0,0,0],"split_type":[0,0,0,0,0,0,0,0,0,0,0,0,0,0,0,0,0,0,0,0,0,0,0],"sum_hessian":[1.2214151E2,8.147086E1,4.0670643E1,3.228965E1,4.9181213E1,1.2430533E1,2.8240112E1,1.25397E1,1.9749952E1,2.3919928E1,2.5261284E1,1.1580818E1,1.6659294E1,7.0573215E0,5.482378E0,8.78997E0,1.5129957E1,1.7015572E1,8.245712E0,5.416639E0,9.713319E0,6.828498E0,1.0187074E1],"tree_param":{"num_deleted":"0","num_feature":"59","num_nodes":"23","size_leaf_vector":"1"}},{"base_weights":[8.48423E-2,3.3458E-1,-3.7300754E-2,5.326653E-1,-1.49716865E-2,-2.0184226E-1,2.5803572E-1,1.4671874E-1,1.3908922E-2,3.9015834E-3,-3.956162E-3,1.2009987E-1,-3.8251162E-1,7.238529E-3,-3.7414082E-3,-2.2907832E-3,6.311332E-3,-1.3504383E-1,8.364266E-3,-1.0005458E-2,-2.1100973E-1,3.0651225E-3,-6.908059E-3,5.546205E-3,-4.1239133E-1,-1.330634E-3,-1.0655092E-2],"categories":[],"categories_nodes":[],"categories_segments":[],"categories_sizes":[],"default_left":[0,0,0,0,0,0,0,0,0,0,0,0,0,0,0,0,0,0,0,0,0,0,0,0,0,0,0],"id":14,"left_children":[1,3,5,7,9,11,13,15,-1,-1,-1,17,19,-1,-1,-1,-1,21,-1,-1,23,-1,-1,-1,25,-1,-1],"loss_changes":[4.2893233E0,3.4011989E0,4.7049465E0,2.5321093E0,1.366334E0,3.8713186E0,2.940626E0,1.4106776E0,0E0,0E0,0E0,2.7392364E0,9.4867563E-1,0E0,0E0,0E0,0E0,1.7876992E0,0E0,0E0,3.5471768E0,0E0,0E0,0E0,1.1738207E0,0E0,0E0],"parents":[2147483647,0,0,1,1,2,2,3,3,4,4,5,5,6,6,7,7,11,11,12,12,17,17,20,20,24,24],"right_children":[2,4,6,8,10,12,14,16,-1,-1,-1,18,20,-1,-1,-1,-1,22,-1,-1,24,-1,-1,-1,26,-1,-1],"split_conditions":[3E0,1.39E2,1.3E1,1E2,2E0,1.04E2,1E0,2.98373E5,1.3908922E-2,3.9015834E-3,-3.956162E-3,5E0,1.41E2,7.238529E-3,-3.7414082E-3,-2.2907832E-3,6.311332E-3,1.1E1,8.364266E-3,-1.0005458E-2,2.38E-2,3.0651225E-3,-6.908059E-3,5.546205E-3,5E0,-1.330634E-3,-1.0655092E-2],"split_indices":[5,14,3,14,19,14,30,0,0,0,0,5,14,0,0,0,0,3,0,0,20,0,0,0,18,0,0],"split_type":[0,0,0,0,0,0,0,0,0,0,0,0,0,0,0,0,0,0,0,0,0,0,0,0,0,0,0],"sum_hessian":[1.2561472E2,4.076357E1,8.485115E1,2.5828447E1,1.49351225E1,5.5893993E1,2.895716E1,1.2780464E1,1.3047984E1,6.079458E0,8.855664E0,1.963904E1,3.625495E1,2.2636765E1,6.3203955E0,5.2289033E0,7.5515604E0,1.1819344E1,7.8196964E0,1.3119311E1,2.3135641E1,5.1052566E0,6.714087E0,5.4185343E0,1.7717108E1,8.669085E0,9.048022E0],"tree_param":{"num_deleted":"0","num_feature":"59","num_nodes":"27","size_leaf_vector":"1"}},{"base_weights":[2.2173358E-2,-1.3245662E-1,1.6022408E-1,-0E0,-6.0742362E-3,-5.36423E-2,3.6124724E-1,-5.295647E-3,2.0519613E-1,2.4838194E-3,-2.1914354E-1,-6.603809E-4,5.241453E-1,1.0151904E-2,-2.4024786E-3,-7.3640714E-3,5.247436E-4,1.510873E-2,5.686062E-4],"categories":[],"categories_nodes":[],"categories_segments":[],"categories_sizes":[],"default_left":[0,0,0,0,0,0,0,0,0,0,0,0,0,0,0,0,0,0,0],"id":15,"left_children":[1,3,5,7,-1,9,11,-1,13,-1,15,-1,17,-1,-1,-1,-1,-1,-1],"loss_changes":[2.145474E0,1.443748E0,2.467301E0,2.2479792E0,0E0,1.1659987E0,2.1180344E0,0E0,3.1793108E0,0E0,1.1602832E0,0E0,3.1477885E0,0E0,0E0,0E0,0E0,0E0,0E0],"parents":[2147483647,0,0,1,1,2,2,3,3,5,5,6,6,8,8,10,10,12,12],"right_children":[2,4,6,8,-1,10,12,-1,14,-1,16,-1,18,-1,-1,-1,-1,-1,-1],"split_conditions":[1.5E1,1.3E1,5.63E-2,1E1,-6.0742362E-3,1E0,3E0,-5.295647E-3,1.034E-1,2.4838194E-3,1.1E1,-6.603809E-4,1E0,1.0151904E-2,-2.4024786E-3,-7.3640714E-3,5.247436E-4,1.510873E-2,5.686062E-4],"split_indices":[15,3,20,3,0,36,5,0,20,0,3,0,39,0,0,0,0,0,0],"split_type":[0,0,0,0,0,0,0,0,0,0,0,0,0,0,0,0,0,0,0],"sum_hessian":[8.467165E1,3.8651566E1,4.602009E1,2.478654E1,1.3865029E1,2.2316038E1,2.370405E1,8.936732E0,1.5849806E1,9.315944E0,1.3000093E1,6.777891E0,1.6926157E1,7.2090735E0,8.640732E0,7.0125904E0,5.987503E0,8.320173E0,8.605984E0],"tree_param":{"num_deleted":"0","num_feature":"59","num_nodes":"19","size_leaf_vector":"1"}},{"base_weights":[3.4022626E-2,-2.722631E-1,1.5868743E-1,-4.5999005E-1,-0E0,3.7271634E-1,-2.5836827E-2,-1.0716851E-2,-7.295422E-6,8.977283E-3,-7.305415E-3,7.5900055E-2,5.808418E-1,-1.8909125E-1,2.818423E-1,2.1623991E-1,-1.8879573E-3,1.2914035E-2,-0E0,-3.2109547E-1,5.582094E-3,7.213489E-4,8.880654E-3,-2.8461982E-3,9.991144E-3,-4.2810786E-1,-0E0,-1.0446168E-2,-1.8210612E-3],"categories":[],"categories_nodes":[],"categories_segments":[],"categories_sizes":[],"default_left":[0,0,0,0,0,0,0,0,0,0,0,0,0,0,0,0,0,0,0,0,0,0,0,0,0,0,0,0,0],"id":16,"left_children":[1,3,5,7,9,11,13,-1,-1,-1,-1,15,17,19,21,23,-1,-1,-1,25,-1,-1,-1,-1,-1,27,-1,-1,-1],"loss_changes":[4.956335E0,1.9611714E0,3.8148503E0,1.3383365E0,4.902663E0,2.4268098E0,2.9011326E0,0E0,0E0,0E0,0E0,8.449674E-1,2.216939E0,2.930319E0,8.694838E-1,2.714535E0,0E0,0E0,0E0,1.1787276E0,0E0,0E0,0E0,0E0,0E0,9.990449E-1,0E0,0E0,0E0],"parents":[2147483647,0,0,1,1,2,2,3,3,4,4,5,5,6,6,11,11,12,12,13,13,14,14,15,15,19,19,25,25],"right_children":[2,4,6,8,10,12,14,-1,-1,-1,-1,16,18,20,22,24,-1,-1,-1,26,-1,-1,-1,-1,-1,28,-1,-1,-1],"split_conditions":[3E0,1E0,2E0,2.4E1,1.7E1,1E0,1E0,-1.0716851E-2,-7.295422E-6,8.977283E-3,-7.305415E-3,1.9E1,1.2E1,4E0,3E1,1E0,-1.8879573E-3,1.2914035E-2,-0E0,5E0,5.582094E-3,7.213489E-4,8.880654E-3,-2.8461982E-3,9.991144E-3,1E0,-0E0,-1.0446168E-2,-1.8210612E-3],"split_indices":[5,40,10,1,1,11,30,0,0,0,0,1,5,19,1,39,0,0,0,16,0,0,0,0,0,28,0,0,0],"split_type":[0,0,0,0,0,0,0,0,0,0,0,0,0,0,0,0,0,0,0,0,0,0,0,0,0,0,0,0,0],"sum_hessian":[1.1705554E2,3.2025482E1,8.503006E1,1.8033966E1,1.3991515E1,3.9071304E1,4.5958755E1,1.2210745E1,5.8232207E0,6.090098E0,7.9014177E0,1.8403166E1,2.066814E1,3.1540092E1,1.4418664E1,1.1375264E1,7.0279026E0,1.5578963E1,5.089176E0,2.6442533E1,5.097559E0,9.377476E0,5.0411882E0,5.680281E0,5.694983E0,1.9664694E1,6.7778387E0,1.0615183E1,9.049511E0],"tree_param":{"num_deleted":"0","num_feature":"59","num_nodes":"29","size_leaf_vector":"1"}},{"base_weights":[2.1046305E-2,-1.0578506E-1,2.505985E-1,2.3788702E-1,-2.9260045E-1,4.4868276E-1,-1.7736287E-1,7.959244E-3,-0E0,-0E0,-3.7183282E-1,5.764434E-1,1.9780109E-3,-7.1561732E-3,1.7767088E-3,-1.1013256E-2,-2.2073068E-1,1.3406974E-3,1.4028262E-2,-6.734061E-3,2.2283816E-3],"categories":[],"categories_nodes":[],"categories_segments":[],"categories_sizes":[],"default_left":[0,0,0,0,0,0,0,0,0,0,0,0,0,0,0,0,0,0,0,0,0],"id":17,"left_children":[1,3,5,7,9,11,13,-1,-1,-1,15,17,-1,-1,-1,-1,19,-1,-1,-1,-1],"loss_changes":[3.8424733E0,5.4965963E0,4.3534765E0,1.5096519E0,1.3381114E0,1.0937448E0,1.4826005E0,0E0,0E0,0E0,1.280076E0,2.1356425E0,0E0,0E0,0E0,0E0,2.2516348E0,0E0,0E0,0E0,0E0],"parents":[2147483647,0,0,1,1,2,2,3,3,4,4,5,5,6,6,10,10,11,11,16,16],"right_children":[2,4,6,8,10,12,14,-1,-1,-1,16,18,-1,-1,-1,-1,20,-1,-1,-1,-1],"split_conditions":[1.3E1,3E0,1E1,7.84E-2,1.1E1,1E0,3.4E1,7.959244E-3,-0E0,-0E0,4E0,4.26E-2,1.9780109E-3,-7.1561732E-3,1.7767088E-3,-1.1013256E-2,5E0,1.3406974E-3,1.4028262E-2,-6.734061E-3,2.2283816E-3],"split_indices":[3,5,5,20,15,2,15,0,0,0,5,20,0,0,0,0,4,0,0,0,0],"split_type":[0,0,0,0,0,0,0,0,0,0,0,0,0,0,0,0,0,0,0,0,0],"sum_hessian":[1.158364E2,7.4453865E1,4.1382534E1,2.5220661E1,4.9233204E1,2.8824692E1,1.2557842E1,1.1377025E1,1.3843637E1,1.0548118E1,3.8685085E1,1.8622316E1,1.0202375E1,6.9317427E0,5.6260996E0,1.0156562E1,2.8528524E1,7.4687567E0,1.1153559E1,1.9943947E1,8.5845785E0],"tree_param":{"num_deleted":"0","num_feature":"59","num_nodes":"21","size_leaf_vector":"1"}},{"base_weights":[-0E0,-4.88807E-3,5.640295E-2,1.5643696E-1,-1.6119713E-1,2.2964019E-1,-2.0537365E-3,-5.98759E-3,1.6769775E-3,3.7864414E-1,-0E0,8.486162E-2,1.4608521E-2,-4.815018E-3,1.5833203E-1,-1.6284437E-3,8.017E-3,8.031448E-3,-2.4388165E-3],"categories":[],"categories_nodes":[],"categories_segments":[],"categories_sizes":[],"default_left":[0,0,0,0,0,0,0,0,0,0,0,0,0,0,0,0,0,0,0],"id":18,"left_children":[1,-1,3,5,7,9,-1,-1,-1,11,13,15,-1,-1,17,-1,-1,-1,-1],"loss_changes":[1.7600745E0,0E0,1.9946423E0,1.4063292E0,1.5700274E0,1.6161621E0,0E0,0E0,0E0,3.592702E0,1.3804164E0,1.9820255E0,0E0,0E0,2.1031768E0,0E0,0E0,0E0,0E0],"parents":[2147483647,0,0,2,2,3,3,4,4,5,5,9,9,10,10,11,11,14,14],"right_children":[2,-1,4,6,8,10,-1,-1,-1,12,14,16,-1,-1,18,-1,-1,-1,-1],"split_conditions":[1E1,-4.88807E-3,1E0,1.429E-1,3E0,1.3E1,-2.0537365E-3,-5.98759E-3,1.6769775E-3,1.2E1,1.4E1,7.41E-2,1.4608521E-2,-4.815018E-3,1.72E2,-1.6284437E-3,8.017E-3,8.031448E-3,-2.4388165E-3],"split_indices":[15,0,17,20,19,3,0,0,0,3,15,20,0,0,14,0,0,0,0],"split_type":[0,0,0,0,0,0,0,0,0,0,0,0,0,0,0,0,0,0,0],"sum_hessian":[8.969118E1,1.3215414E1,7.647577E1,5.4145153E1,2.2330612E1,4.4200214E1,9.944937E0,1.3461459E1,8.869154E0,2.5004175E1,1.9196041E1,1.7696539E1,7.307636E0,5.6326246E0,1.35634165E1,1.2654678E1,5.04186E0,6.667898E0,6.895519E0],"tree_param":{"num_deleted":"0","num_feature":"59","num_nodes":"19","size_leaf_vector":"1"}},{"base_weights":[-6.492148E-2,-1.7478961E-1,1.3204579E-1,-2.4137944E-1,3.7503557E-3,-6.713744E-2,3.7726015E-1,-3.752889E-1,8.5293256E-2,8.283053E-2,-8.361638E-3,9.43691E-3,5.113747E-4,-4.4884557E-1,-9.407991E-2,-1.7548852E-1,9.011054E-3,-2.7074735E-3,8.742744E-3,7.157426E-4,-9.598817E-3,-4.937653E-3,2.43969E-3,9.940465E-4,-6.5738596E-3],"categories":[],"categories_nodes":[],"categories_segments":[],"categories_sizes":[],"default_left":[0,0,0,0,0,0,0,0,0,0,0,0,0,0,0,0,0,0,0,0,0,0,0,0,0],"id":19,"left_children":[1,3,5,7,-1,9,11,13,15,17,-1,-1,-1,19,21,23,-1,-1,-1,-1,-1,-1,-1,-1,-1],"loss_changes":[2.989718E0,2.5267682E0,2.6466966E0,3.5715785E0,0E0,2.2774928E0,1.1060634E0,9.053817E-1,3.3902874E0,2.8723023E0,0E0,0E0,0E0,2.3526745E0,1.1046596E0,1.1085969E0,0E0,0E0,0E0,0E0,0E0,0E0,0E0,0E0,0E0],"parents":[2147483647,0,0,1,1,2,2,3,3,5,5,6,6,7,7,8,8,9,9,13,13,14,14,15,15],"right_children":[2,4,6,8,-1,10,12,14,16,18,-1,-1,-1,20,22,24,-1,-1,-1,-1,-1,-1,-1,-1,-1],"split_conditions":[4E0,4E0,7.84E-2,1E0,3.7503557E-3,5.77E-2,1E1,1E0,1E0,2.56E-2,-8.361638E-3,9.43691E-3,5.113747E-4,7E0,1E0,1.12E2,9.011054E-3,-2.7074735E-3,8.742744E-3,7.157426E-4,-9.598817E-3,-4.937653E-3,2.43969E-3,9.940465E-4,-6.5738596E-3],"split_indices":[4,19,20,30,0,20,3,29,9,20,0,0,0,3,37,14,0,0,0,0,0,0,0,0,0],"split_type":[0,0,0,0,0,0,0,0,0,0,0,0,0,0,0,0,0,0,0,0,0,0,0,0,0],"sum_hessian":[1.2302961E2,8.044846E1,4.2581146E1,7.043609E1,1.0012376E1,2.3700014E1,1.8881132E1,5.052181E1,1.9914278E1,1.825313E1,5.446885E0,1.1084859E1,7.7962728E0,3.76632E1,1.2858607E1,1.2829819E1,7.0844603E0,1.2116017E1,6.137112E0,6.007571E0,3.165563E1,7.7334957E0,5.125111E0,5.938377E0,6.891442E0],"tree_param":{"num_deleted":"0","num_feature":"59","num_nodes":"25","size_leaf_vector":"1"}},{"base_weights":[-4.47325E-2,1.8924852E-1,-1.5179949E-1,-4.6389375E-2,5.236383E-1,4.6339758E-2,-3.0396083E-1,1.530074E-1,-5.25024E-3,1.3945068E-2,2.2882423E-3,-1.8622655E-1,2.1821186E-1,2.0013157E-2,-4.6791458E-1,6.61171E-3,-2.3680637E-3,1.1842939E-3,-7.5315326E-3,6.1828336E-3,-2.5233896E-3,-3.3666666E-3,3.1768996E-3,-1.114631E-2,-1.5808259E-1,5.4703588E-3,-8.376932E-3],"categories":[],"categories_nodes":[],"categories_segments":[],"categories_sizes":[],"default_left":[0,0,0,0,0,0,0,0,0,0,0,0,0,0,0,0,0,0,0,0,0,0,0,0,0,0,0],"id":20,"left_children":[1,3,5,7,9,11,13,15,-1,-1,-1,17,19,21,23,-1,-1,-1,-1,-1,-1,-1,-1,-1,25,-1,-1],"loss_changes":[3.5407603E0,3.7601185E0,3.0541494E0,1.8018665E0,1.5807328E0,2.0415473E0,3.1732903E0,1.5117584E0,0E0,0E0,0E0,1.5786883E0,1.7059634E0,1.0449067E0,1.5792179E0,0E0,0E0,0E0,0E0,0E0,0E0,0E0,0E0,0E0,3.577306E0,0E0,0E0],"parents":[2147483647,0,0,1,1,2,2,3,3,4,4,5,5,6,6,7,7,11,11,12,12,13,13,14,14,24,24],"right_children":[2,4,6,8,10,12,14,16,-1,-1,-1,18,20,22,24,-1,-1,-1,-1,-1,-1,-1,-1,-1,26,-1,-1],"split_conditions":[3E0,1E0,1.6E1,1.35E2,4E0,2E0,1.06E2,2.5E1,-5.25024E-3,1.3945068E-2,2.2882423E-3,1E0,2.01E2,1.2E-1,2.03E2,6.61171E-3,-2.3680637E-3,1.1842939E-3,-7.5315326E-3,6.1828336E-3,-2.5233896E-3,-3.3666666E-3,3.1768996E-3,-1.114631E-2,3E2,5.4703588E-3,-8.376932E-3],"split_indices":[5,17,1,14,16,16,14,1,0,0,0,29,14,20,14,0,0,0,0,0,0,0,0,0,14,0,0],"split_type":[0,0,0,0,0,0,0,0,0,0,0,0,0,0,0,0,0,0,0,0,0,0,0,0,0,0,0],"sum_hessian":[1.2684673E2,3.8020924E1,8.882581E1,2.2985262E1,1.5035661E1,3.8283936E1,5.0541878E1,1.2614803E1,1.0370458E1,6.623617E0,8.412045E0,1.5205032E1,2.3078905E1,1.6979565E1,3.3562313E1,7.373259E0,5.241544E0,7.6350904E0,7.569942E0,1.763559E1,5.443315E0,6.066339E0,1.0913226E1,1.9017176E1,1.4545136E1,5.430014E0,9.115123E0],"tree_param":{"num_deleted":"0","num_feature":"59","num_nodes":"27","size_leaf_vector":"1"}},{"base_weights":[-0E0,7.6445125E-2,-2.9623297E-1,-8.9797325E-2,3.2834873E-1,-0E0,-7.437154E-3,-2.1923149E-1,1.1719715E-1,5.150608E-1,-3.2529095E-4,-5.1191513E-4,-7.96656E-3,7.975592E-3,-4.08297E-3,7.0193624E-1,3.6520552E-4,3.4380022E-3,1.5974397E-2],"categories":[],"categories_nodes":[],"categories_segments":[],"categories_sizes":[],"default_left":[0,0,0,0,0,0,0,0,0,0,0,0,0,0,0,0,0,0,0],"id":21,"left_children":[1,3,5,7,9,-1,-1,11,13,15,-1,-1,-1,-1,-1,17,-1,-1,-1],"loss_changes":[2.384171E0,3.350369E0,9.5660937E-1,1.455965E0,2.268874E0,0E0,0E0,1.2664508E0,2.8651352E0,1.6659794E0,0E0,0E0,0E0,0E0,0E0,8.638439E-1,0E0,0E0,0E0],"parents":[2147483647,0,0,1,1,2,2,3,3,4,4,7,7,8,8,9,9,15,15],"right_children":[2,4,6,8,10,-1,-1,12,14,16,-1,-1,-1,-1,-1,18,-1,-1,-1],"split_conditions":[5E1,1.9E1,4E0,1.7E1,3.6E1,-0E0,-7.437154E-3,1E0,1E0,1E0,-3.2529095E-4,-5.1191513E-4,-7.96656E-3,7.975592E-3,-4.08297E-3,4E0,3.6520552E-4,3.4380022E-3,1.5974397E-2],"split_indices":[1,1,5,15,1,0,0,30,40,39,0,0,0,0,0,5,0,0,0],"split_type":[0,0,0,0,0,0,0,0,0,0,0,0,0,0,0,0,0,0,0],"sum_hessian":[8.327701E1,6.67691E1,1.6507912E1,4.0337208E1,2.6431889E1,5.1732554E0,1.1334656E1,2.5883656E1,1.445355E1,1.706491E1,9.366978E0,1.6960463E1,8.923192E0,7.5030828E0,6.9504676E0,1.0981209E1,6.083702E0,5.333109E0,5.6481E0],"tree_param":{"num_deleted":"0","num_feature":"59","num_nodes":"19","size_leaf_vector":"1"}},{"base_weights":[2.0701839E-2,-9.0384506E-2,3.0808306E-1,-1.4284988E-1,5.340738E-3,1.3110662E-2,6.2758245E-2,-2.317825E-1,1.5249157E-1,-1.0078927E-1,7.515279E-3,-2.9964456E-1,2.4659806E-3,2.9730618E-1,-2.0190224E-3,2.177741E-3,-5.72539E-3,-6.7591714E-3,-3.641655E-2,9.136107E-3,-0E0,-5.387441E-3,4.3640216E-3],"categories":[],"categories_nodes":[],"categories_segments":[],"categories_sizes":[],"default_left":[0,0,0,0,0,0,0,0,0,0,0,0,0,0,0,0,0,0,0,0,0,0,0],"id":22,"left_children":[1,3,5,7,-1,-1,9,11,13,15,-1,17,-1,19,-1,-1,-1,-1,21,-1,-1,-1,-1],"loss_changes":[4.3444085E0,2.182321E0,3.8033483E0,2.4500694E0,0E0,0E0,2.1969438E0,1.9733088E0,1.121697E0,1.4721582E0,0E0,1.1837134E0,0E0,1.2882743E0,0E0,0E0,0E0,0E0,2.047482E0,0E0,0E0,0E0,0E0],"parents":[2147483647,0,0,1,1,2,2,3,3,6,6,7,7,8,8,9,9,11,11,13,13,18,18],"right_children":[2,4,6,8,-1,-1,10,12,14,16,-1,18,-1,20,-1,-1,-1,-1,22,-1,-1,-1,-1],"split_conditions":[8E0,4E0,7E0,6E0,5.340738E-3,1.3110662E-2,1E0,1.4E1,1.52E2,1.22E2,7.515279E-3,1E0,2.4659806E-3,6.34008E5,-2.0190224E-3,2.177741E-3,-5.72539E-3,-6.7591714E-3,1E0,9.136107E-3,-0E0,-5.387441E-3,4.3640216E-3],"split_indices":[5,19,3,4,0,0,48,3,14,14,0,30,0,0,0,0,0,0,9,0,0,0,0],"split_type":[0,0,0,0,0,0,0,0,0,0,0,0,0,0,0,0,0,0,0,0,0,0,0],"sum_hessian":[1.1907764E2,8.623698E1,3.284066E1,7.854775E1,7.689221E0,9.164784E0,2.3675877E1,6.1836365E1,1.6711393E1,1.7001015E1,6.6748633E0,5.365291E1,8.183454E0,1.1605104E1,5.106288E0,8.271946E0,8.729069E0,3.8251587E1,1.5401323E1,5.994312E0,5.6107926E0,8.49244E0,6.9088826E0],"tree_param":{"num_deleted":"0","num_feature":"59","num_nodes":"23","size_leaf_vector":"1"}},{"base_weights":[-1.8312378E-2,1.4214304E-1,-2.3207103E-1,3.5693815E-1,-8.102981E-2,-3.2449007E-1,2.0670372E-3,4.820715E-1,-3.2677795E-3,-2.602986E-1,5.740465E-3,-0E0,-4.071777E-1,1.139448E-2,7.41528E-2,2.4146428E-3,-8.19601E-3,-6.240077E-4,-9.141884E-3,5.7882266E-3,-2.6726376E-3],"categories":[],"categories_nodes":[],"categories_segments":[],"categories_sizes":[],"default_left":[0,0,0,0,0,0,0,0,0,0,0,0,0,0,0,0,0,0,0,0,0],"id":23,"left_children":[1,3,5,7,9,11,-1,13,-1,15,-1,-1,17,-1,19,-1,-1,-1,-1,-1,-1],"loss_changes":[4.763893E0,3.929677E0,2.1817484E0,3.239407E0,3.3356395E0,1.4630308E0,0E0,2.0485058E0,0E0,2.9092233E0,0E0,0E0,1.4789977E0,0E0,1.3083481E0,0E0,0E0,0E0,0E0,0E0,0E0],"parents":[2147483647,0,0,1,1,2,2,3,3,4,4,5,5,7,7,9,9,12,12,14,14],"right_children":[2,4,6,8,10,12,-1,14,-1,16,-1,-1,18,-1,20,-1,-1,-1,-1,-1,-1],"split_conditions":[1E0,8E0,5E0,3E0,2.74E2,1E0,2.0670372E-3,2.8E1,-3.2677795E-3,1.04E2,5.740465E-3,-0E0,1E0,1.139448E-2,1E0,2.4146428E-3,-8.19601E-3,-6.240077E-4,-9.141884E-3,5.7882266E-3,-2.6726376E-3],"split_indices":[9,5,16,19,14,44,0,1,0,14,0,0,33,0,39,0,0,0,0,0,0],"split_type":[0,0,0,0,0,0,0,0,0,0,0,0,0,0,0,0,0,0,0,0,0],"sum_hessian":[1.2442826E2,7.0547874E1,5.3880383E1,3.6015556E1,3.4532322E1,4.367544E1,1.0204941E1,3.011451E1,5.901048E0,2.5367428E1,9.164894E0,8.492094E0,3.518335E1,1.944426E1,1.0670249E1,8.384995E0,1.6982431E1,1.0005393E1,2.5177958E1,5.231991E0,5.438258E0],"tree_param":{"num_deleted":"0","num_feature":"59","num_nodes":"21","size_leaf_vector":"1"}},{"base_weights":[3.8862593E-2,-5.059077E-3,1.115094E-1,-6.6905595E-2,2.6098764E-1,-1.5966019E-1,2.8758023E-3,6.267254E-1,-8.1518196E-2,-4.94026E-3,1.6246877E-3,3.0125275E-3,7.6601577E-1,6.4201583E-3,-6.976919E-3,3.6319178E-3,1.8158859E-2],"categories":[],"categories_nodes":[],"categories_segments":[],"categories_sizes":[],"default_left":[0,0,0,0,0,0,0,0,0,0,0,0,0,0,0,0,0],"id":24,"left_children":[1,-1,3,5,7,9,-1,11,13,-1,-1,-1,15,-1,-1,-1,-1],"loss_changes":[2.490663E0,0E0,2.3757198E0,1.0556117E0,6.2446027E0,1.2053382E0,0E0,9.281044E-1,4.465083E0,0E0,0E0,0E0,1.6779308E0,0E0,0E0,0E0,0E0],"parents":[2147483647,0,0,2,2,3,3,4,4,5,5,7,7,8,8,12,12],"right_children":[2,-1,4,6,8,10,-1,12,14,-1,-1,-1,16,-1,-1,-1,-1],"split_conditions":[1E1,-5.059077E-3,1.9E1,4E0,3.5E1,3E0,2.8758023E-3,1.5E1,3E0,-4.94026E-3,1.6246877E-3,3.0125275E-3,1E0,6.4201583E-3,-6.976919E-3,3.6319178E-3,1.8158859E-2],"split_indices":[15,0,1,18,1,6,0,15,18,0,0,0,8,0,0,0,0],"split_type":[0,0,0,0,0,0,0,0,0,0,0,0,0,0,0,0,0],"sum_hessian":[8.910047E1,1.3704481E1,7.5395996E1,3.385897E1,4.153702E1,2.597825E1,7.8807197E0,1.9553282E1,2.1983742E1,1.8299883E1,7.678367E0,6.668692E0,1.288459E1,8.423816E0,1.3559926E1,6.2661357E0,6.618454E0],"tree_param":{"num_deleted":"0","num_feature":"59","num_nodes":"17","size_leaf_vector":"1"}},{"base_weights":[6.432373E-4,-3.04489E-1,1.18318975E-1,1.1968808E-3,-7.504344E-3,-1.9141395E-1,2.741229E-1,-0E0,-3.6762348E-1,-0E0,3.7457755E-1,-3.2432028E-3,4.5888284E-3,-0E0,-9.4613945E-3,3.0595348E-3,-2.6216698E-3,-5.10169E-4,7.7717775E-3],"categories":[],"categories_nodes":[],"categories_segments":[],"categories_sizes":[],"default_left":[0,0,0,0,0,0,0,0,0,0,0,0,0,0,0,0,0,0,0],"id":25,"left_children":[1,3,5,-1,-1,7,9,11,13,15,17,-1,-1,-1,-1,-1,-1,-1,-1],"loss_changes":[4.838419E0,1.9817057E0,4.933503E0,0E0,0E0,1.0984969E0,1.9621172E0,1.3759451E0,9.7494197E-1,8.1388175E-1,1.6208749E0,0E0,0E0,0E0,0E0,0E0,0E0,0E0,0E0],"parents":[2147483647,0,0,1,1,2,2,5,5,6,6,7,7,8,8,9,9,10,10],"right_children":[2,4,6,-1,-1,8,10,12,14,16,18,-1,-1,-1,-1,-1,-1,-1,-1],"split_conditions":[3E0,6E0,2E0,1.1968808E-3,-7.504344E-3,1E0,1E0,2.9E1,2E0,3.92E-2,9E0,-3.2432028E-3,4.5888284E-3,-0E0,-9.4613945E-3,3.0595348E-3,-2.6216698E-3,-5.10169E-4,7.7717775E-3],"split_indices":[5,1,4,0,0,4,22,15,19,20,15,0,0,0,0,0,0,0,0],"split_type":[0,0,0,0,0,0,0,0,0,0,0,0,0,0,0,0,0,0,0],"sum_hessian":[1.2214692E2,3.1873137E1,9.027378E1,7.5107813E0,2.4362354E1,2.916418E1,6.11096E1,1.6124546E1,1.3039634E1,1.6216028E1,4.4893574E1,1.0608104E1,5.516443E0,5.6183805E0,7.421253E0,6.238503E0,9.977525E0,6.040108E0,3.8853466E1],"tree_param":{"num_deleted":"0","num_feature":"59","num_nodes":"19","size_leaf_vector":"1"}},{"base_weights":[-1.4716879E-2,7.656034E-2,-2.4712825E-1,2.9586688E-1,-5.394412E-2,-1.0865037E-2,-3.8500916E-2,3.9221448E-1,-2.2275685E-3,-2.9073054E-1,1.5676968E-1,2.4761246E-1,-6.2350323E-3,1.0194547E-1,5.834126E-1,-9.896719E-3,4.173107E-3,-1.5380909E-1,6.7437864E-3,9.5252E-3,-1.1844309E-3,-2.1087553E-3,6.2064836E-3,3.395663E-3,1.4129475E-2,2.3413775E-3,-6.9660647E-3],"categories":[],"categories_nodes":[],"categories_segments":[],"categories_sizes":[],"default_left":[0,0,0,0,0,0,0,0,0,0,0,0,0,0,0,0,0,0,0,0,0,0,0,0,0,0,0],"id":26,"left_children":[1,3,5,7,9,-1,11,13,-1,15,17,19,-1,21,23,-1,-1,25,-1,-1,-1,-1,-1,-1,-1,-1,-1],"loss_changes":[3.046769E0,2.979167E0,2.934285E0,1.873637E0,3.4139E0,0E0,3.2448974E0,1.4965181E0,0E0,5.1944313E0,2.824095E0,2.0281816E0,0E0,1.4149059E0,1.0016394E0,0E0,0E0,1.5847231E0,0E0,0E0,0E0,0E0,0E0,0E0,0E0,0E0,0E0],"parents":[2147483647,0,0,1,1,2,2,3,3,4,4,6,6,7,7,9,9,10,10,11,11,13,13,14,14,17,17],"right_children":[2,4,6,8,10,-1,12,14,-1,16,18,20,-1,22,24,-1,-1,26,-1,-1,-1,-1,-1,-1,-1,-1,-1],"split_conditions":[1E0,1.5E1,2E0,1E0,3.2E1,-1.0865037E-2,7.84E-2,4E-2,-2.2275685E-3,1.3359818E1,3E0,2.6E1,-6.2350323E-3,1E0,5E0,-9.896719E-3,4.173107E-3,1.3359818E1,6.7437864E-3,9.5252E-3,-1.1844309E-3,-2.1087553E-3,6.2064836E-3,3.395663E-3,1.4129475E-2,2.3413775E-3,-6.9660647E-3],"split_indices":[29,1,27,11,1,0,20,20,0,26,18,1,0,8,5,0,0,26,0,0,0,0,0,0,0,0,0],"split_type":[0,0,0,0,0,0,0,0,0,0,0,0,0,0,0,0,0,0,0,0,0,0,0,0,0,0,0],"sum_hessian":[1.2394347E2,8.908685E1,3.4856613E1,3.3074844E1,5.6012005E1,9.883312E0,2.49733E1,2.7857885E1,5.216961E0,2.6765034E1,2.9246973E1,1.2817284E1,1.2156018E1,1.3525041E1,1.4332844E1,1.7969675E1,8.795359E0,1.206441E1,1.7182562E1,6.222479E0,6.594805E0,7.1273766E0,6.3976645E0,7.7349358E0,6.597908E0,5.372156E0,6.6922545E0],"tree_param":{"num_deleted":"0","num_feature":"59","num_nodes":"27","size_leaf_vector":"1"}},{"base_weights":[2.7835043E-2,1.511994E-1,-6.270984E-3,2.80426E-1,-4.373441E-3,-2.2900412E-2,5.6803924E-1,-3.7212234E-3,8.567085E-2,2.415844E-3,7.1550643E-1,-2.8900516E-3,4.120312E-3,5.532615E-3,1.6392544E-2],"categories":[],"categories_nodes":[],"categories_segments":[],"categories_sizes":[],"default_left":[0,0,0,0,0,0,0,0,0,0,0,0,0,0,0],"id":27,"left_children":[1,3,-1,5,-1,7,9,-1,11,-1,13,-1,-1,-1,-1],"loss_changes":[5.0839405E0,4.4641E0,0E0,5.7125444E0,0E0,9.558082E-1,1.6173525E0,0E0,1.1477805E0,0E0,1.0879374E0,0E0,0E0,0E0,0E0],"parents":[2147483647,0,0,1,1,3,3,5,5,6,6,8,8,10,10],"right_children":[2,4,-1,6,-1,8,10,-1,12,-1,14,-1,-1,-1,-1],"split_conditions":[1.4E1,5E1,-6.270984E-3,1.9E1,-4.373441E-3,9E0,1E0,-3.7212234E-3,1.70642E5,2.415844E-3,1.31E2,-2.8900516E-3,4.120312E-3,5.532615E-3,1.6392544E-2],"split_indices":[3,1,0,1,0,3,16,0,0,0,14,0,0,0,0],"split_type":[0,0,0,0,0,0,0,0,0,0,0,0,0,0,0],"sum_hessian":[9.4606895E1,7.373698E1,2.086992E1,5.7133984E1,1.6602991E1,2.8357967E1,2.8776016E1,1.067846E1,1.7679508E1,9.368882E0,1.9407135E1,5.534454E0,1.2145053E1,9.920788E0,9.486347E0],"tree_param":{"num_deleted":"0","num_feature":"59","num_nodes":"15","size_leaf_vector":"1"}},{"base_weights":[7.889239E-2,-3.8558204E-2,2.755182E-1,2.2908217E-1,-1.2603268E-1,3.7164688E-1,-7.770497E-4,1.0882531E-4,7.3524844E-3,-2.5037146E-1,8.267865E-2,2.025409E-1,1.0336177E-2,-0E0,-3.30186E-1,2.9626694E-1,-2.5724154E-3,3.3695027E-1,-1.625349E-3,-5.0913584E-3,4.1094436E-3,-8.146037E-3,-0E0,-0E0,8.764058E-3,9.137051E-3,2.0513048E-4],"categories":[],"categories_nodes":[],"categories_segments":[],"categories_sizes":[],"default_left":[0,0,0,0,0,0,0,0,0,0,0,0,0,0,0,0,0,0,0,0,0,0,0,0,0,0,0],"id":28,"left_children":[1,3,5,7,9,11,-1,-1,-1,13,15,17,-1,19,21,23,-1,25,-1,-1,-1,-1,-1,-1,-1,-1,-1],"loss_changes":[3.1818762E0,2.1375587E0,1.7640252E0,8.061627E-1,1.9048313E0,1.1163592E0,0E0,0E0,0E0,7.6141715E-1,1.645949E0,1.4206481E0,0E0,1.5574089E0,1.4508398E0,8.562739E-1,0E0,1.129431E0,0E0,0E0,0E0,0E0,0E0,0E0,0E0,0E0,0E0],"parents":[2147483647,0,0,1,1,2,2,3,3,4,4,5,5,9,9,10,10,11,11,13,13,14,14,15,15,17,17],"right_children":[2,4,6,8,10,12,-1,-1,-1,14,16,18,-1,20,22,24,-1,26,-1,-1,-1,-1,-1,-1,-1,-1,-1],"split_conditions":[4E0,8.8E1,5E0,1E0,1.92E2,1.45E2,-7.770497E-4,1.0882531E-4,7.3524844E-3,4.94E-2,1E0,1E0,1.0336177E-2,2E0,1.538E-1,5.26E-2,-2.5724154E-3,1.3E1,-1.625349E-3,-5.0913584E-3,4.1094436E-3,-8.146037E-3,-0E0,-0E0,8.764058E-3,9.137051E-3,2.0513048E-4],"split_indices":[4,14,16,30,14,14,0,0,0,20,40,40,0,6,20,20,0,15,0,0,0,0,0,0,0,0,0],"split_type":[0,0,0,0,0,0,0,0,0,0,0,0,0,0,0,0,0,0,0,0,0,0,0,0,0,0,0],"sum_hessian":[1.2183322E2,7.638933E1,4.544389E1,1.6634151E1,5.9755177E1,3.554992E1,9.8939705E0,9.925285E0,6.708866E0,3.828349E1,2.147169E1,2.4033558E1,1.1516361E1,1.1011658E1,2.7271832E1,1.1606409E1,9.865281E0,1.7169647E1,6.8639107E0,5.321092E0,5.690565E0,1.853562E1,8.736211E0,6.5479016E0,5.0585074E0,9.115466E0,8.054181E0],"tree_param":{"num_deleted":"0","num_feature":"59","num_nodes":"27","size_leaf_vector":"1"}},{"base_weights":[-0E0,1.4331408E-1,-1.8677028E-1,2.4593446E-1,-4.900621E-2,-3.5478497E-1,1.9861509E-1,4.0314823E-1,4.6589516E-2,-1.7775337E-1,4.394132E-3,-4.72723E-1,-0E0,9.341776E-3,-6.061801E-3,1.2042855E-1,1.2959292E-2,6.5707723E-3,-8.0068454E-2,2.8992835E-3,-9.060403E-3,-0E0,-1.060135E-2,-5.4310234E-3,5.8290204E-3,-2.9326202E-3,5.369472E-3,-6.207869E-3,6.2869586E-2,-4.6139346E-3,5.636753E-3,5.7448098E-3,-2.2128858E-3],"categories":[],"categories_nodes":[],"categories_segments":[],"categories_sizes":[],"default_left":[0,0,0,0,0,0,0,0,0,0,0,0,0,0,0,0,0,0,0,0,0,0,0,0,0,0,0,0,0,0,0,0,0],"id":29,"left_children":[1,3,5,7,9,11,13,15,17,19,-1,21,23,-1,-1,25,-1,-1,27,29,-1,-1,-1,-1,-1,-1,-1,-1,31,-1,-1,-1,-1],"loss_changes":[3.9356833E0,1.7581339E0,4.40989E0,1.572202E0,1.4687039E0,2.000893E0,4.621817E0,2.43756E0,1.6534851E0,1.8298888E0,0E0,2.1811805E0,2.144905E0,0E0,0E0,1.494401E0,0E0,0E0,1.2666297E0,2.103062E0,0E0,0E0,0E0,0E0,0E0,0E0,0E0,0E0,1.2647321E0,0E0,0E0,0E0,0E0],"parents":[2147483647,0,0,1,1,2,2,3,3,4,4,5,5,6,6,7,7,8,8,9,9,11,11,12,12,15,15,18,18,19,19,28,28],"right_children":[2,4,6,8,10,12,14,16,18,20,-1,22,24,-1,-1,26,-1,-1,28,30,-1,-1,-1,-1,-1,-1,-1,-1,32,-1,-1,-1,-1],"split_conditions":[1E0,1E0,1E0,4E0,4E1,1.3E1,1E0,6.34008E5,1E1,1.39E2,4.394132E-3,8E0,7.84E-2,9.341776E-3,-6.061801E-3,1E0,1.2959292E-2,6.5707723E-3,1.11E2,1.02E2,-9.060403E-3,-0E0,-1.060135E-2,-5.4310234E-3,5.8290204E-3,-2.9326202E-3,5.369472E-3,-6.207869E-3,1.41E2,-4.6139346E-3,5.636753E-3,5.7448098E-3,-2.2128858E-3],"split_indices":[9,43,7,16,1,3,28,0,3,14,0,3,20,0,0,33,0,0,14,14,0,0,0,0,0,0,0,0,14,0,0,0,0],"split_type":[0,0,0,0,0,0,0,0,0,0,0,0,0,0,0,0,0,0,0,0,0,0,0,0,0,0,0,0,0,0,0,0,0],"sum_hessian":[1.3186842E2,7.479675E1,5.707168E1,4.9607586E1,2.5189165E1,4.0601784E1,1.6469893E1,2.5088419E1,2.4519169E1,1.931806E1,5.8711047E0,3.0227543E1,1.0374241E1,1.0671966E1,5.797927E0,1.6295704E1,8.792715E0,6.189691E0,1.8329477E1,1.3625367E1,5.692693E0,7.277194E0,2.295035E1,5.1498475E0,5.224394E0,5.6908607E0,1.0604843E1,5.8301034E0,1.2499374E1,7.0141687E0,6.611199E0,5.2343054E0,7.2650685E0],"tree_param":{"num_deleted":"0","num_feature":"59","num_nodes":"33","size_leaf_vector":"1"}},{"base_weights":[6.1437592E-2,2.1347696E-1,-5.0865076E-3,-2.2955324E-1,3.7977684E-1,1.1256499E-3,-7.016937E-3,5.4406077E-1,1.6189402E-2,1.1451913E-2,-0E0,-4.5394124E-3,2.091777E-1,-8.746486E-4,8.039755E-3],"categories":[],"categories_nodes":[],"categories_segments":[],"categories_sizes":[],"default_left":[0,0,0,0,0,0,0,0,0,0,0,0,0,0,0],"id":30,"left_children":[1,3,-1,5,7,-1,-1,9,11,-1,-1,-1,13,-1,-1],"loss_changes":[5.179117E0,5.2866807E0,0E0,1.3158152E0,2.7571654E0,0E0,0E0,1.9909458E0,1.4629991E0,0E0,0E0,0E0,1.3148727E0,0E0,0E0],"parents":[2147483647,0,0,1,1,3,3,4,4,7,7,8,8,12,12],"right_children":[2,4,-1,6,8,-1,-1,10,12,-1,-1,-1,14,-1,-1],"split_conditions":[1E0,1.2E1,-5.0865076E-3,3E0,5E0,1.1256499E-3,-7.016937E-3,6E0,2E0,1.1451913E-2,-0E0,-4.5394124E-3,2E0,-8.746486E-4,8.039755E-3],"split_indices":[17,15,0,4,16,0,0,4,10,0,0,0,4,0,0],"split_type":[0,0,0,0,0,0,0,0,0,0,0,0,0,0,0],"sum_hessian":[8.490493E1,6.083686E1,2.4068071E1,1.5679988E1,4.515687E1,5.5689907E0,1.0110997E1,2.9435446E1,1.5721428E1,2.3898981E1,5.5364633E0,5.25088E0,1.0470548E1,5.4462433E0,5.0243044E0],"tree_param":{"num_deleted":"0","num_feature":"59","num_nodes":"15","size_leaf_vector":"1"}},{"base_weights":[1.3782503E-2,1.2284493E-2,-4.0278636E-2,2.679445E-1,-1.6436727E-1,-1.02634296E-1,1.2427692E-2,-3.0088538E-1,1.3362746E-1,-6.5495246E-3,4.3890094E-3,-4.5922342E-1,-1.2635992E-1,-1.0393292E-1,8.455225E-3,-8.0287614E-4,-1.0404013E-2,2.7055247E-3,-2.4731314E-1,-8.097395E-3,1.902068E-3,-0E0,-7.5220694E-3],"categories":[],"categories_nodes":[],"categories_segments":[],"categories_sizes":[],"default_left":[0,0,0,0,0,0,0,0,0,0,0,0,0,0,0,0,0,0,0,0,0,0,0],"id":31,"left_children":[1,-1,3,5,7,9,-1,11,13,-1,-1,15,17,19,-1,-1,-1,-1,21,-1,-1,-1,-1],"loss_changes":[5.413634E0,0E0,4.754574E0,6.2656355E0,3.8041887E0,2.6183977E0,0E0,1.4768329E0,2.9166758E0,0E0,0E0,1.4419794E0,1.4829981E0,2.0076444E0,0E0,0E0,0E0,0E0,1.355348E0,0E0,0E0,0E0,0E0],"parents":[2147483647,0,0,2,2,3,3,4,4,5,5,7,7,8,8,11,11,12,12,13,13,18,18],"right_children":[2,-1,4,6,8,10,-1,12,14,-1,-1,16,18,20,-1,-1,-1,-1,22,-1,-1,-1,-1],"split_conditions":[1E0,1.2284493E-2,1E1,4E0,1E0,4E0,1.2427692E-2,1.19E2,1E0,-6.5495246E-3,4.3890094E-3,6.8E1,1E0,1.2E1,8.455225E-3,-8.0287614E-4,-1.0404013E-2,2.7055247E-3,2.5E1,-8.097395E-3,1.902068E-3,-0E0,-7.5220694E-3],"split_indices":[10,0,3,4,34,5,0,14,2,0,0,14,4,3,0,0,0,0,15,0,0,0,0],"split_type":[0,0,0,0,0,0,0,0,0,0,0,0,0,0,0,0,0,0,0,0,0,0,0],"sum_hessian":[1.1828797E2,6.769237E0,1.1151873E2,3.0202822E1,8.131591E1,1.7096876E1,1.3105945E1,5.6650684E1,2.4665224E1,1.0199355E1,6.897522E0,2.621006E1,3.0440626E1,1.5161446E1,9.503778E0,8.096548E0,1.8113512E1,7.9554863E0,2.248514E1,5.137416E0,1.002403E1,1.0324798E1,1.2160342E1],"tree_param":{"num_deleted":"0","num_feature":"59","num_nodes":"23","size_leaf_vector":"1"}},{"base_weights":[-1.6847974E-2,2.7054954E-1,-7.311479E-2,-2.6006626E-3,1.0214769E-2,-1.22535974E-1,1.4476523E-1,-3.3841345E-2,-2.537524E-1,7.7414815E-3,-3.1080747E-3,5.566791E-2,-3.4729207E-1,6.256059E-5,-3.4944957E-1,-2.2996109E-2,6.091995E-3,-0E0,-9.360078E-3,-0E0,-8.4024435E-3,-4.1764467E-3,4.2394307E-3],"categories":[],"categories_nodes":[],"categories_segments":[],"categories_sizes":[],"default_left":[0,0,0,0,0,0,0,0,0,0,0,0,0,0,0,0,0,0,0,0,0,0,0],"id":32,"left_children":[1,3,5,-1,-1,7,9,11,13,-1,-1,15,17,-1,19,21,-1,-1,-1,-1,-1,-1,-1],"loss_changes":[2.3136435E0,3.4668841E0,1.3857028E0,0E0,0E0,1.0796713E0,2.6399012E0,2.1558049E0,1.0894909E0,0E0,0E0,1.5136487E0,9.068322E-1,0E0,1.4566858E0,2.791349E0,0E0,0E0,0E0,0E0,0E0,0E0,0E0],"parents":[2147483647,0,0,1,1,2,2,5,5,6,6,7,7,8,8,11,11,12,12,14,14,15,15],"right_children":[2,4,6,-1,-1,8,10,12,14,-1,-1,16,18,-1,20,22,-1,-1,-1,-1,-1,-1,-1],"split_conditions":[1E1,1.2E1,6E0,-2.6006626E-3,1.0214769E-2,2.1E1,4E0,4E0,1E0,7.7414815E-3,-3.1080747E-3,1E0,1.2E1,6.256059E-5,1E0,2E0,6.091995E-3,-0E0,-9.360078E-3,-0E0,-8.4024435E-3,-4.1764467E-3,4.2394307E-3],"split_indices":[15,3,18,0,0,15,19,6,19,0,0,51,3,0,16,6,0,0,0,0,0,0,0],"split_type":[0,0,0,0,0,0,0,0,0,0,0,0,0,0,0,0,0,0,0,0,0,0,0],"sum_hessian":[1.2600643E2,1.7802465E1,1.08203964E2,7.695247E0,1.0107219E1,9.0629105E1,1.7574863E1,5.788986E1,3.2739246E1,9.240048E0,8.334814E0,4.579166E1,1.2098197E1,8.472329E0,2.4266918E1,3.700809E1,8.783569E0,5.928225E0,6.1699724E0,6.8565288E0,1.7410389E1,2.1373276E1,1.5634816E1],"tree_param":{"num_deleted":"0","num_feature":"59","num_nodes":"23","size_leaf_vector":"1"}},{"base_weights":[-2.1839159E-2,8.8061266E-2,-3.0668402E-1,-1.3570872E-1,4.6770138E-1,-7.4912217E-3,-3.0790924E-4,-2.4320757E-1,-0E0,-0E0,6.696268E-1,-6.380004E-3,-0E0,-3.2262392E-3,6.741621E-3,1.4482484E-2,1.7376218E-3],"categories":[],"categories_nodes":[],"categories_segments":[],"categories_sizes":[],"default_left":[0,0,0,0,0,0,0,0,0,0,0,0,0,0,0,0,0],"id":33,"left_children":[1,3,5,7,9,-1,-1,11,13,-1,15,-1,-1,-1,-1,-1,-1],"loss_changes":[3.4166496E0,6.607732E0,8.99348E-1,7.7942497E-1,2.968141E0,0E0,0E0,9.093839E-1,2.2391315E0,0E0,1.3774471E0,0E0,0E0,0E0,0E0,0E0,0E0],"parents":[2147483647,0,0,1,1,2,2,3,3,4,4,7,7,8,8,10,10],"right_children":[2,4,6,8,10,-1,-1,12,14,-1,16,-1,-1,-1,-1,-1,-1],"split_conditions":[3.6E1,1.9E1,1E0,1.6E1,9.6E1,-7.4912217E-3,-3.0790924E-4,1E0,1E0,-0E0,1E0,-6.380004E-3,-0E0,-3.2262392E-3,6.741621E-3,1.4482484E-2,1.7376218E-3],"split_indices":[1,1,39,15,14,0,0,40,28,0,48,0,0,0,0,0,0],"split_type":[0,0,0,0,0,0,0,0,0,0,0,0,0,0,0,0,0],"sum_hessian":[9.203399E1,6.676911E1,2.5264874E1,4.2454224E1,2.4314888E1,1.5901212E1,9.363663E0,2.3107306E1,1.934692E1,7.5736313E0,1.6741255E1,1.4867193E1,8.240111E0,1.3777791E1,5.569129E0,1.1597654E1,5.143602E0],"tree_param":{"num_deleted":"0","num_feature":"59","num_nodes":"17","size_leaf_vector":"1"}},{"base_weights":[-9.79714E-3,-8.997664E-2,2.712621E-1,-1.2505746E-1,5.2317656E-3,9.607462E-3,-8.339115E-2,-7.549958E-2,-8.886322E-3,-4.970098E-3,1.5324961E-3,-1.717518E-1,3.3881518E-1,-7.059228E-2,-3.6556643E-1,-0E0,1.0856656E-2,1.7930315E-3,-3.3967637E-3,-6.853784E-5,-9.080028E-3],"categories":[],"categories_nodes":[],"categories_segments":[],"categories_sizes":[],"default_left":[0,0,0,0,0,0,0,0,0,0,0,0,0,0,0,0,0,0,0,0,0],"id":34,"left_children":[1,3,5,7,-1,-1,9,11,-1,-1,-1,13,15,17,19,-1,-1,-1,-1,-1,-1],"loss_changes":[2.980978E0,1.6155288E0,3.1848679E0,1.7655276E0,0E0,0E0,8.2733583E-1,3.8284352E0,0E0,0E0,0E0,1.3713472E0,1.8614907E0,1.3761321E0,1.1705265E0,0E0,0E0,0E0,0E0,0E0,0E0],"parents":[2147483647,0,0,1,1,2,2,3,3,6,6,7,7,11,11,12,12,13,13,14,14],"right_children":[2,4,6,8,-1,-1,10,12,-1,-1,-1,14,16,18,20,-1,-1,-1,-1,-1,-1],"split_conditions":[1.538E-1,7.1E1,1E0,5E1,5.2317656E-3,9.607462E-3,1.892E-1,1.1E1,-8.886322E-3,-4.970098E-3,1.5324961E-3,6.34008E5,1E0,2E0,1.3E1,-0E0,1.0856656E-2,1.7930315E-3,-3.3967637E-3,-6.853784E-5,-9.080028E-3],"split_indices":[20,15,39,15,0,0,20,5,0,0,0,0,41,10,15,0,0,0,0,0,0],"split_type":[0,0,0,0,0,0,0,0,0,0,0,0,0,0,0,0,0,0,0,0,0],"sum_hessian":[1.1757627E2,9.399594E1,2.3580338E1,8.883409E1,5.161845E0,1.2996436E1,1.0583901E1,8.243824E1,6.3958554E0,5.0951757E0,5.4887257E0,6.895056E1,1.3487677E1,4.905951E1,1.989105E1,7.122338E0,6.365339E0,1.9318373E1,2.9741138E1,7.52497E0,1.2366079E1],"tree_param":{"num_deleted":"0","num_feature":"59","num_nodes":"21","size_leaf_vector":"1"}},{"base_weights":[7.1695144E-3,-9.70216E-3,5.6313757E-2,3.122711E-1,-3.85246E-2,8.36874E-3,-0E0,3.8287397E-2,-5.6894347E-3,7.0330543E-3,-6.563514E-3,3.358054E-1,-4.5767985E-2,1.0983591E-4,8.916373E-3,-2.3192398E-1,1.6480535E-1,-5.9542414E-3,4.9315864E-4,5.2964156E-3,-2.0405718E-3],"categories":[],"categories_nodes":[],"categories_segments":[],"categories_sizes":[],"default_left":[0,0,0,0,0,0,0,0,0,0,0,0,0,0,0,0,0,0,0,0,0],"id":35,"left_children":[1,-1,3,5,7,-1,9,11,-1,-1,-1,13,15,-1,-1,17,19,-1,-1,-1,-1],"loss_changes":[3.844429E0,0E0,3.2590203E0,1.7872155E0,2.34309E0,0E0,3.2548656E0,2.1960902E0,0E0,0E0,0E0,9.0437245E-1,2.623636E0,0E0,0E0,1.1647342E0,1.4247868E0,0E0,0E0,0E0,0E0],"parents":[2147483647,0,0,2,2,3,3,4,4,6,6,7,7,11,11,12,12,15,15,16,16],"right_children":[2,-1,4,6,8,-1,10,12,-1,-1,-1,14,16,-1,-1,18,20,-1,-1,-1,-1],"split_conditions":[6E0,-9.70216E-3,3E0,1E0,1E0,8.36874E-3,1.2E1,9E0,-5.6894347E-3,7.0330543E-3,-6.563514E-3,7E0,1.3E1,1.0983591E-4,8.916373E-3,1E0,1E0,-5.9542414E-3,4.9315864E-4,5.2964156E-3,-2.0405718E-3],"split_indices":[3,0,5,40,29,0,3,3,0,0,0,3,3,0,0,43,30,0,0,0,0],"split_type":[0,0,0,0,0,0,0,0,0,0,0,0,0,0,0,0,0,0,0,0,0],"sum_hessian":[1.23322266E2,7.032325E0,1.1628994E2,3.0876772E1,8.541317E1,1.8811247E1,1.2065526E1,6.8151436E1,1.7261736E1,5.969593E0,6.0959325E0,1.425216E1,5.3899273E1,6.677486E0,7.574674E0,2.9449528E1,2.4449745E1,2.1242058E1,8.207471E0,1.7195206E1,7.2545404E0],"tree_param":{"num_deleted":"0","num_feature":"59","num_nodes":"21","size_leaf_vector":"1"}},{"base_weights":[2.765069E-2,9.5433965E-2,-2.8594232E-1,2.0268328E-1,-4.348673E-3,-0E0,-7.7440636E-3,-5.1758334E-2,4.973958E-1,-1.9781978E-1,1.514718E-1,3.4932212E-3,1.4131425E-2,-6.1620288E-3,1.8495917E-3,5.944681E-3,-4.617972E-4],"categories":[],"categories_nodes":[],"categories_segments":[],"categories_sizes":[],"default_left":[0,0,0,0,0,0,0,0,0,0,0,0,0,0,0,0,0],"id":36,"left_children":[1,3,5,7,-1,-1,-1,9,11,13,15,-1,-1,-1,-1,-1,-1],"loss_changes":[2.259084E0,3.341533E0,9.472326E-1,5.2524176E0,0E0,0E0,0E0,1.3902696E0,2.3658128E0,1.4832652E0,8.293551E-1,0E0,0E0,0E0,0E0,0E0,0E0],"parents":[2147483647,0,0,1,1,2,2,3,3,7,7,8,8,9,9,10,10],"right_children":[2,4,6,8,-1,-1,-1,10,12,14,16,-1,-1,-1,-1,-1,-1],"split_conditions":[1.5E1,5E1,1E0,1.9E1,-4.348673E-3,-0E0,-7.7440636E-3,1E0,1.31E2,3E0,5E0,3.4932212E-3,1.4131425E-2,-6.1620288E-3,1.8495917E-3,5.944681E-3,-4.617972E-4],"split_indices":[3,1,40,1,0,0,0,40,14,6,1,0,0,0,0,0,0],"split_type":[0,0,0,0,0,0,0,0,0,0,0,0,0,0,0,0,0],"sum_hessian":[9.057016E1,7.7048775E1,1.3521385E1,6.0460735E1,1.6588043E1,5.2676225E0,8.253763E0,3.29324E1,2.7528334E1,2.0324207E1,1.2608192E1,1.6984291E1,1.0544043E1,1.4030444E1,6.293763E0,5.990014E0,6.6181784E0],"tree_param":{"num_deleted":"0","num_feature":"59","num_nodes":"17","size_leaf_vector":"1"}},{"base_weights":[8.927767E-2,-1.67818E-1,1.8135558E-1,-7.896554E-3,1.7352662E-3,2.4341697E-1,-2.6319688E-3,1.5594292E-1,4.3243748E-1,2.7101788E-1,-7.2219633E-3,1.0637876E-2,-0E0,5.1092607E-1,1.152348E-1,1.2135808E-2,8.2214654E-4,-3.548247E-3,4.4363276E-3],"categories":[],"categories_nodes":[],"categories_segments":[],"categories_sizes":[],"default_left":[0,0,0,0,0,0,0,0,0,0,0,0,0,0,0,0,0,0,0],"id":37,"left_children":[1,3,5,-1,-1,7,-1,9,11,13,-1,-1,-1,15,17,-1,-1,-1,-1],"loss_changes":[3.0921848E0,2.9469194E0,2.1465805E0,0E0,0E0,1.1379523E0,0E0,4.4992986E0,2.0014668E0,1.7779958E0,0E0,0E0,0E0,1.3563786E0,1.9867191E0,0E0,0E0,0E0,0E0],"parents":[2147483647,0,0,1,1,2,2,5,5,7,7,8,8,9,9,13,13,14,14],"right_children":[2,4,6,-1,-1,8,-1,10,12,14,-1,-1,-1,16,18,-1,-1,-1,-1],"split_conditions":[3E0,7.84E-2,1E0,-7.896554E-3,1.7352662E-3,5E1,-2.6319688E-3,1E0,7.8E1,4.94E-2,-7.2219633E-3,1.0637876E-2,-0E0,1.1E1,8.33E-2,1.2135808E-2,8.2214654E-4,-3.548247E-3,4.4363276E-3],"split_indices":[5,20,57,0,0,1,0,42,1,20,0,0,0,5,20,0,0,0,0],"split_type":[0,0,0,0,0,0,0,0,0,0,0,0,0,0,0,0,0,0,0],"sum_hessian":[1.15609825E2,2.8777716E1,8.683211E1,1.3752831E1,1.5024883E1,7.475608E1,1.2076029E1,5.5900787E1,1.8855291E1,4.825036E1,7.650428E0,1.3213465E1,5.6418266E0,1.5575751E1,3.2674606E1,9.595602E0,5.9801483E0,8.671529E0,2.4003078E1],"tree_param":{"num_deleted":"0","num_feature":"59","num_nodes":"19","size_leaf_vector":"1"}},{"base_weights":[-7.203061E-3,1.8807034E-1,-8.748819E-2,1.5399595E-2,8.849119E-3,-0E0,-3.0213338E-1,3.7616608E-3,-4.520072E-3,-2.8269317E-3,7.815493E-2,-4.140781E-1,-0E0,1.620763E-1,-3.5940686E-3,-9.879339E-3,-0E0,-7.434269E-2,3.1581622E-1,5.4511265E-3,-6.205913E-3,-2.5443677E-3,9.605987E-3],"categories":[],"categories_nodes":[],"categories_segments":[],"categories_sizes":[],"default_left":[0,0,0,0,0,0,0,0,0,0,0,0,0,0,0,0,0,0,0,0,0,0,0],"id":38,"left_children":[1,3,5,7,-1,9,11,-1,-1,-1,13,15,-1,17,-1,-1,-1,19,21,-1,-1,-1,-1],"loss_changes":[2.2680519E0,2.1006055E0,1.9704475E0,2.0227141E0,0E0,1.119376E0,1.1056073E0,0E0,0E0,0E0,1.482201E0,1.5719492E0,0E0,1.8231906E0,0E0,0E0,0E0,2.6561015E0,3.5073655E0,0E0,0E0,0E0,0E0],"parents":[2147483647,0,0,1,1,2,2,3,3,5,5,6,6,10,10,11,11,13,13,17,17,18,18],"right_children":[2,4,6,8,-1,10,12,-1,-1,-1,14,16,-1,18,-1,-1,-1,20,22,-1,-1,-1,-1],"split_conditions":[3E0,1E0,1E0,1.41E2,8.849119E-3,1E0,1.37E2,3.7616608E-3,-4.520072E-3,-2.8269317E-3,1.2E1,1E0,-0E0,4E0,-3.5940686E-3,-9.879339E-3,-0E0,2.94E-2,1.61E-2,5.4511265E-3,-6.205913E-3,-2.5443677E-3,9.605987E-3],"split_indices":[5,17,29,14,0,49,14,0,0,0,5,7,0,5,0,0,0,20,20,0,0,0,0],"split_type":[0,0,0,0,0,0,0,0,0,0,0,0,0,0,0,0,0,0,0,0,0,0,0],"sum_hessian":[1.282252E2,3.48786E1,9.3346596E1,2.524625E1,9.632351E0,6.825641E1,2.5090189E1,1.5762328E1,9.483921E0,2.131633E1,4.694008E1,1.8028309E1,7.0618787E0,3.8187237E1,8.752845E0,1.2975556E1,5.052753E0,1.4595E1,2.3592236E1,5.429085E0,9.1659155E0,7.712141E0,1.5880095E1],"tree_param":{"num_deleted":"0","num_feature":"59","num_nodes":"23","size_leaf_vector":"1"}},{"base_weights":[1.3735896E-2,6.829127E-2,-7.098443E-3,1.4814758E-1,-2.5773966E-1,5.468047E-2,9.760661E-3,-7.3569673E-3,-0E0,-1.1371029E-1,2.1561986E-1,1.7936829E-3,-5.7533453E-3,7.1597667E-3,-7.4004508E-3,3.075429E-3,-3.2317122E-3],"categories":[],"categories_nodes":[],"categories_segments":[],"categories_sizes":[],"default_left":[0,0,0,0,0,0,0,0,0,0,0,0,0,0,0,0,0],"id":39,"left_children":[1,3,-1,5,7,9,-1,-1,-1,11,13,-1,-1,-1,15,-1,-1],"loss_changes":[2.2031589E0,2.3178632E0,0E0,2.5017343E0,8.780116E-1,1.8402103E0,0E0,0E0,0E0,1.7325685E0,1.6547363E0,0E0,0E0,0E0,8.901326E-1,0E0,0E0],"parents":[2147483647,0,0,1,1,3,3,4,4,5,5,9,9,10,10,14,14],"right_children":[2,4,-1,6,8,10,-1,-1,-1,12,14,-1,-1,-1,16,-1,-1],"split_conditions":[5.6E1,6E0,-7.098443E-3,1E0,1.8E1,1.06E2,9.760661E-3,-7.3569673E-3,-0E0,2E0,1.52E2,1.7936829E-3,-5.7533453E-3,7.1597667E-3,4E0,3.075429E-3,-3.2317122E-3],"split_indices":[15,4,0,50,15,14,0,0,0,10,14,0,0,0,16,0,0],"split_type":[0,0,0,0,0,0,0,0,0,0,0,0,0,0,0,0,0],"sum_hessian":[8.023544E1,7.3839935E1,6.3955092E0,6.146394E1,1.2375991E1,5.333513E1,8.128811E0,7.185411E0,5.19058E0,2.526361E1,2.807152E1,1.240578E1,1.285783E1,1.4741736E1,1.3329783E1,5.4828978E0,7.8468857E0],"tree_param":{"num_deleted":"0","num_feature":"59","num_nodes":"17","size_leaf_vector":"1"}},{"base_weights":[-0E0,1.9006586E-1,-1.0938549E-1,-3.2270784E-3,3.0210862E-1,-2.3918228E-1,2.4937028E-1,8.874949E-3,-0E0,-6.1508182E-2,-4.6187866E-1,-1.811004E-3,6.950821E-3,-2.7909598E-3,5.3924094E-3,6.51248E-2,-8.96765E-3,-9.995683E-3,-8.975912E-4,-1.1752528E-1,6.184367E-3,-5.529454E-3,3.3388902E-3],"categories":[],"categories_nodes":[],"categories_segments":[],"categories_sizes":[],"default_left":[0,0,0,0,0,0,0,0,0,0,0,0,0,0,0,0,0,0,0,0,0,0,0],"id":40,"left_children":[1,3,5,-1,7,9,11,-1,13,15,17,-1,-1,-1,-1,19,-1,-1,-1,21,-1,-1,-1],"loss_changes":[2.7695327E0,2.2714348E0,4.150959E0,0E0,2.1782403E0,2.3335772E0,1.5549141E0,0E0,1.4376607E0,2.8281436E0,9.5090914E-1,0E0,0E0,0E0,0E0,2.1680942E0,0E0,0E0,0E0,1.7635671E0,0E0,0E0,0E0],"parents":[2147483647,0,0,1,1,2,2,4,4,5,5,6,6,8,8,9,9,10,10,15,15,19,19],"right_children":[2,4,6,-1,8,10,12,-1,14,16,18,-1,-1,-1,-1,20,-1,-1,-1,22,-1,-1,-1],"split_conditions":[2E0,1E0,1.176E-1,-3.2270784E-3,1.2606103E1,6.9E-2,1.3E1,8.874949E-3,1E0,5.2E1,1E0,-1.811004E-3,6.950821E-3,-2.7909598E-3,5.3924094E-3,1E0,-8.96765E-3,-9.995683E-3,-8.975912E-4,1E0,6.184367E-3,-5.529454E-3,3.3388902E-3],"split_indices":[16,33,20,0,26,20,15,0,30,15,51,0,0,0,0,19,0,0,0,43,0,0,0],"split_type":[0,0,0,0,0,0,0,0,0,0,0,0,0,0,0,0,0,0,0,0,0,0,0],"sum_hessian":[1.17846725E2,4.117254E1,7.667419E1,8.269802E0,3.2902737E1,5.7768017E1,1.8906168E1,1.7728476E1,1.5174259E1,3.503257E1,2.2735449E1,5.0519857E0,1.3854182E1,1.0041917E1,5.1323423E0,2.8491491E1,6.5410786E0,1.634228E1,6.39317E0,1.7602211E1,1.088928E1,1.1435262E1,6.1669483E0],"tree_param":{"num_deleted":"0","num_feature":"59","num_nodes":"23","size_leaf_vector":"1"}},{"base_weights":[1.658448E-2,-1.0628607E-1,2.4278018E-1,7.682739E-2,-3.5440266E-1,-1.1934895E-1,4.710755E-1,3.5481068E-1,-2.680791E-1,3.0518745E-3,-9.8877335E-3,3.0773813E-3,-9.6540665E-3,1.0676437E-2,1.2534295E-3,1.7482908E-1,1.1766409E-2,-9.534532E-3,-4.3539185E-2,-3.0623104E-3,3.3465198E-1,-5.624336E-3,5.1567196E-3,9.0362085E-3,-0E0],"categories":[],"categories_nodes":[],"categories_segments":[],"categories_sizes":[],"default_left":[0,0,0,0,0,0,0,0,0,0,0,0,0,0,0,0,0,0,0,0,0,0,0,0,0],"id":41,"left_children":[1,3,5,7,9,11,13,15,17,-1,-1,-1,-1,-1,-1,19,-1,-1,21,-1,23,-1,-1,-1,-1],"loss_changes":[4.0352936E0,4.3396573E0,4.5465555E0,5.58428E0,4.953517E0,3.4619315E0,1.4959655E0,1.4477429E0,1.4234713E0,0E0,0E0,0E0,0E0,0E0,0E0,1.8002753E0,0E0,0E0,2.2931259E0,0E0,1.1248305E0,0E0,0E0,0E0,0E0],"parents":[2147483647,0,0,1,1,2,2,3,3,4,4,5,5,6,6,7,7,8,8,15,15,18,18,20,20],"right_children":[2,4,6,8,10,12,14,16,18,-1,-1,-1,-1,-1,-1,20,-1,-1,22,-1,24,-1,-1,-1,-1],"split_conditions":[1.3E1,1E0,4.55E-2,2E0,8E0,2E0,1.379E-1,1E0,7E0,3.0518745E-3,-9.8877335E-3,3.0773813E-3,-9.6540665E-3,1.0676437E-2,1.2534295E-3,1.7E1,1.1766409E-2,-9.534532E-3,4.2E1,-3.0623104E-3,2.8E1,-5.624336E-3,5.1567196E-3,9.0362085E-3,-0E0],"split_indices":[3,9,20,6,3,6,20,38,3,0,0,0,0,0,0,1,0,0,1,0,1,0,0,0,0],"split_type":[0,0,0,0,0,0,0,0,0,0,0,0,0,0,0,0,0,0,0,0,0,0,0,0,0],"sum_hessian":[1.2867773E2,8.319205E1,4.5485683E1,4.803391E1,3.5158134E1,1.7424183E1,2.80615E1,2.7182896E1,2.0851011E1,9.637492E0,2.5520645E1,1.0774667E1,6.6495156E0,1.9002502E1,9.058998E0,2.0830034E1,6.352861E0,6.816995E0,1.4034016E1,5.6802707E0,1.5149764E1,8.412067E0,5.6219487E0,8.45229E0,6.697475E0],"tree_param":{"num_deleted":"0","num_feature":"59","num_nodes":"25","size_leaf_vector":"1"}},{"base_weights":[2.3204207E-2,1.04615845E-1,-3.22319E-1,2.2405179E-1,-2.6659903E-1,-8.13305E-3,-0E0,-0E0,5.509804E-1,1.5377045E-4,-8.197921E-3,1.03281796E-1,-5.9326948E-3,2.0519635E-3,6.830786E-1,-4.7290656E-3,2.6528633E-1,1.1549353E-3,1.5742617E-2,1.2322421E-3,1.0271402E-2],"categories":[],"categories_nodes":[],"categories_segments":[],"categories_sizes":[],"default_left":[0,0,0,0,0,0,0,0,0,0,0,0,0,0,0,0,0,0,0,0,0],"id":42,"left_children":[1,3,5,7,9,-1,-1,11,13,-1,-1,15,-1,-1,17,-1,19,-1,-1,-1,-1],"loss_changes":[3.040328E0,4.0459046E0,9.17351E-1,4.9094324E0,1.4821813E0,0E0,0E0,1.8574705E0,1.1458607E0,0E0,0E0,2.5410273E0,0E0,0E0,2.1735086E0,0E0,1.5231656E0,0E0,0E0,0E0,0E0],"parents":[2147483647,0,0,1,1,2,2,3,3,4,4,7,7,8,8,11,11,14,14,16,16],"right_children":[2,4,6,8,10,-1,-1,12,14,-1,-1,16,-1,-1,18,-1,20,-1,-1,-1,-1],"split_conditions":[1.5E1,4E1,1E0,1.9E1,1.4E1,-8.13305E-3,-0E0,1E0,1E1,1.5377045E-4,-8.197921E-3,8E0,-5.9326948E-3,2.0519635E-3,1E0,-4.7290656E-3,4E0,1.1549353E-3,1.5742617E-2,1.2322421E-3,1.0271402E-2],"split_indices":[3,1,28,1,15,0,0,45,3,0,0,3,0,0,16,0,18,0,0,0,0],"split_type":[0,0,0,0,0,0,0,0,0,0,0,0,0,0,0,0,0,0,0,0,0],"sum_hessian":[9.391854E1,7.845471E1,1.5463826E1,6.096736E1,1.7487354E1,9.734665E0,5.7291613E0,3.781794E1,2.314942E1,7.684614E0,9.802741E0,3.0482815E1,7.3351245E0,7.292286E0,1.5857135E1,7.937323E0,2.2545492E1,5.521833E0,1.0335301E1,1.68665E1,5.678991E0],"tree_param":{"num_deleted":"0","num_feature":"59","num_nodes":"21","size_leaf_vector":"1"}},{"base_weights":[-0E0,-1.7200518E-1,1.9709575E-1,1.616997E-2,-2.8285474E-1,4.265562E-1,-2.4360953E-1,3.5575079E-3,-4.6433345E-3,-3.740717E-1,6.339978E-4,1.1792264E-2,1.3470228E-1,-9.138831E-3,-0E0,-4.8695296E-1,1.001946E-3,-3.4401861E-3,1.01146065E-2,-1.047697E-2,-3.8459487E-4],"categories":[],"categories_nodes":[],"categories_segments":[],"categories_sizes":[],"default_left":[0,0,0,0,0,0,0,0,0,0,0,0,0,0,0,0,0,0,0,0,0],"id":43,"left_children":[1,3,5,7,9,11,13,-1,-1,15,-1,-1,17,-1,-1,19,-1,-1,-1,-1,-1],"loss_changes":[4.273073E0,1.5268065E0,6.2558484E0,1.7723721E0,1.4621294E0,2.4543672E0,1.7047577E0,0E0,0E0,1.9876575E0,0E0,0E0,4.102351E0,0E0,0E0,1.2483907E0,0E0,0E0,0E0,0E0,0E0],"parents":[2147483647,0,0,1,1,2,2,3,3,4,4,5,5,6,6,9,9,12,12,15,15],"right_children":[2,4,6,8,10,12,14,-1,-1,16,-1,-1,18,-1,-1,20,-1,-1,-1,-1,-1],"split_conditions":[1E0,1E0,1E0,1.29E-1,5E0,2E0,3E0,3.5575079E-3,-4.6433345E-3,1.724E-1,6.339978E-4,1.1792264E-2,1E0,-9.138831E-3,-0E0,1E0,1.001946E-3,-3.4401861E-3,1.01146065E-2,-1.047697E-2,-3.8459487E-4],"split_indices":[2,36,51,20,16,16,6,0,0,20,0,0,40,0,0,50,0,0,0,0,0],"split_type":[0,0,0,0,0,0,0,0,0,0,0,0,0,0,0,0,0,0,0,0,0],"sum_hessian":[1.1211859E2,6.0118958E1,5.199963E1,2.1834368E1,3.828459E1,3.4836754E1,1.7162878E1,1.4401882E1,7.432485E0,3.036563E1,7.918961E0,1.6187693E1,1.8649061E1,7.044385E0,1.0118493E1,2.4510736E1,5.8548923E0,1.1034307E1,7.6147537E0,1.8431223E1,6.0795145E0],"tree_param":{"num_deleted":"0","num_feature":"59","num_nodes":"21","size_leaf_vector":"1"}},{"base_weights":[1.922081E-2,7.847922E-2,-6.312044E-3,1.4996055E-2,8.95257E-3,1.5611066E-1,-2.7200842E-1,-2.8217576E-2,4.4504148E-1,-0E0,-7.897717E-3,2.5864434E-1,-2.5802642E-1,6.2776273E-1,-0E0,8.74837E-3,-4.6049175E-4,-4.3867523E-4,-9.863365E-3,2.314666E-3,1.4918535E-2],"categories":[],"categories_nodes":[],"categories_segments":[],"categories_sizes":[],"default_left":[0,0,0,0,0,0,0,0,0,0,0,0,0,0,0,0,0,0,0,0,0],"id":44,"left_children":[1,3,-1,5,-1,7,9,11,13,-1,-1,15,17,19,-1,-1,-1,-1,-1,-1,-1],"loss_changes":[2.9341974E0,2.9989772E0,0E0,4.2273645E0,0E0,3.9660146E0,1.6111176E0,3.3367565E0,2.0908365E0,0E0,0E0,1.7619189E0,1.8072624E0,1.6425843E0,0E0,0E0,0E0,0E0,0E0,0E0,0E0],"parents":[2147483647,0,0,1,1,3,3,5,5,6,6,7,7,8,8,11,11,12,12,13,13],"right_children":[2,4,-1,6,-1,8,10,12,14,-1,-1,16,18,20,-1,-1,-1,-1,-1,-1,-1],"split_conditions":[2E0,7E1,-6.312044E-3,1E0,8.95257E-3,1.3E1,2.98373E5,7.84E-2,2E1,-0E0,-7.897717E-3,4E0,1E0,2.07965E5,-0E0,8.74837E-3,-4.6049175E-4,-4.3867523E-4,-9.863365E-3,2.314666E-3,1.4918535E-2],"split_indices":[13,1,0,43,0,3,0,20,1,0,0,16,2,0,0,0,0,0,0,0,0],"split_type":[0,0,0,0,0,0,0,0,0,0,0,0,0,0,0,0,0,0,0,0,0],"sum_hessian":[1.1439138E2,1.0172021E2,1.2671167E1,9.196239E1,9.757827E0,6.3392834E1,2.856955E1,3.9366745E1,2.4026089E1,1.2736009E1,1.5833541E1,1.6600834E1,2.2765913E1,1.567044E1,8.355649E0,8.616507E0,7.9843283E0,1.53204155E1,7.4454966E0,6.792229E0,8.878211E0],"tree_param":{"num_deleted":"0","num_feature":"59","num_nodes":"21","size_leaf_vector":"1"}},{"base_weights":[7.355168E-2,-2.2967297E-3,1.7572917E-1,-1.808421E-3,2.6757136E-1,4.4602147E-1,9.703756E-3,-1.6113465E-3,6.989272E-1,-2.569558E-3,3.7181776E-3,1.7094588E-2,4.2705337E-4],"categories":[],"categories_nodes":[],"categories_segments":[],"categories_sizes":[],"default_left":[0,0,0,0,0,0,0,0,0,0,0,0,0],"id":45,"left_children":[1,-1,3,-1,5,7,9,-1,11,-1,-1,-1,-1],"loss_changes":[2.0639048E0,0E0,1.8262407E0,0E0,2.1121547E0,4.319192E0,1.1103034E0,0E0,3.3531399E0,0E0,0E0,0E0,0E0],"parents":[2147483647,0,0,2,2,4,4,5,5,6,6,8,8],"right_children":[2,-1,4,-1,6,8,10,-1,12,-1,-1,-1,-1],"split_conditions":[1E0,-2.2967297E-3,1E0,-1.808421E-3,3E0,1.01E2,3E0,-1.6113465E-3,5E0,-2.569558E-3,3.7181776E-3,1.7094588E-2,4.2705337E-4],"split_indices":[16,0,22,0,25,14,4,0,4,0,0,0,0],"split_type":[0,0,0,0,0,0,0,0,0,0,0,0,0],"sum_hessian":[8.33056E1,2.6183605E1,5.7121998E1,1.2999836E1,4.412216E1,2.4011248E1,2.0110916E1,7.7313857E0,1.6279861E1,1.0682831E1,9.428084E0,1.0244348E1,6.035514E0],"tree_param":{"num_deleted":"0","num_feature":"59","num_nodes":"13","size_leaf_vector":"1"}},{"base_weights":[-4.3103244E-2,-1.1618956E-1,2.5608912E-1,7.3794546E-3,-1.6709475E-1,3.9770156E-1,-2.2775538E-3,-3.1652045E-1,-1.2283636E-2,-0E0,1.0009457E-2,-4.1717845E-1,-7.3707804E-2,-1.3479671E-1,9.581377E-3,-0E0,-9.276891E-3,-4.5765573E-3,2.9320107E-3,-2.2260852E-1,6.299092E-2,-6.201976E-3,1.4811881E-3,-2.8102433E-3,5.0757066E-3],"categories":[],"categories_nodes":[],"categories_segments":[],"categories_sizes":[],"default_left":[0,0,0,0,0,0,0,0,0,0,0,0,0,0,0,0,0,0,0,0,0,0,0,0,0],"id":46,"left_children":[1,3,5,-1,7,9,-1,11,13,-1,-1,15,17,19,-1,-1,-1,-1,-1,21,23,-1,-1,-1,-1],"loss_changes":[3.1114326E0,3.3896155E0,1.8358133E0,0E0,2.3057535E0,1.6906016E0,0E0,1.0733628E0,4.2246184E0,0E0,0E0,1.7633271E0,1.2956583E0,1.0263324E0,0E0,0E0,0E0,0E0,0E0,1.745322E0,1.246194E0,0E0,0E0,0E0,0E0],"parents":[2147483647,0,0,1,1,2,2,4,4,5,5,7,7,8,8,11,11,12,12,13,13,19,19,20,20],"right_children":[2,4,6,-1,8,10,-1,12,14,-1,-1,16,18,20,-1,-1,-1,-1,-1,22,24,-1,-1,-1,-1],"split_conditions":[5E1,6E0,7.8E1,7.3794546E-3,2E0,2E0,-2.2775538E-3,1E0,6E0,-0E0,1.0009457E-2,1E0,2.2E1,1E0,9.581377E-3,-0E0,-9.276891E-3,-4.5765573E-3,2.9320107E-3,6.34008E5,1E0,-6.201976E-3,1.4811881E-3,-2.8102433E-3,5.0757066E-3],"split_indices":[1,3,1,0,19,4,0,37,4,0,0,49,1,34,0,0,0,0,0,0,51,0,0,0,0],"split_type":[0,0,0,0,0,0,0,0,0,0,0,0,0,0,0,0,0,0,0,0,0,0,0,0,0],"sum_hessian":[1.2661244E2,1.0413884E2,2.2473606E1,6.625985E0,9.751285E1,1.7129438E1,5.344168E0,4.6892906E1,5.0619946E1,5.528492E0,1.1600946E1,3.0635487E1,1.625742E1,4.3799786E1,6.82016E0,6.7918406E0,2.3843645E1,9.921389E0,6.3360314E0,3.1468546E1,1.2331239E1,2.2603798E1,8.864746E0,5.746848E0,6.584391E0],"tree_param":{"num_deleted":"0","num_feature":"59","num_nodes":"25","size_leaf_vector":"1"}},{"base_weights":[-8.961411E-3,-7.021553E-2,4.2048752E-1,-1.2447908E-2,-2.763464E-1,4.4673064E-4,1.1280868E-2,2.913367E-1,-8.307637E-2,-7.620389E-3,2.1135632E-3,9.786914E-3,-1.1339178E-3,5.660672E-2,-2.4079968E-1,-2.004413E-1,3.4791275E-3,-2.3182083E-3,-8.7917065E-3,2.4255945E-3,-9.402799E-3,-3.6053027E-3,2.0485444E-3],"categories":[],"categories_nodes":[],"categories_segments":[],"categories_sizes":[],"default_left":[0,0,0,0,0,0,0,0,0,0,0,0,0,0,0,0,0,0,0,0,0,0,0],"id":47,"left_children":[1,3,5,7,9,-1,-1,11,13,-1,-1,-1,-1,15,17,19,-1,21,-1,-1,-1,-1,-1],"loss_changes":[3.718308E0,1.4321675E0,1.2841198E0,2.307166E0,1.9956656E0,0E0,0E0,2.225905E0,2.045676E0,0E0,0E0,0E0,0E0,1.9667106E0,2.4777877E0,2.5467522E0,0E0,9.416878E-1,0E0,0E0,0E0,0E0,0E0],"parents":[2147483647,0,0,1,1,2,2,3,3,4,4,7,7,8,8,13,13,14,14,15,15,17,17],"right_children":[2,4,6,8,10,-1,-1,12,14,-1,-1,-1,-1,16,18,20,-1,22,-1,-1,-1,-1,-1],"split_conditions":[6.8E1,1.2E1,5E0,1E1,5.1E1,4.4673064E-4,1.1280868E-2,2E0,1.6E1,-7.620389E-3,2.1135632E-3,9.786914E-3,-1.1339178E-3,1E0,1E0,1E0,3.4791275E-3,2.1E1,-8.7917065E-3,2.4255945E-3,-9.402799E-3,-3.6053027E-3,2.0485444E-3],"split_indices":[1,5,16,15,15,0,0,6,1,0,0,0,0,49,9,33,0,1,0,0,0,0,0],"split_type":[0,0,0,0,0,0,0,0,0,0,0,0,0,0,0,0,0,0,0,0,0,0,0],"sum_hessian":[1.2647499E2,1.13467865E2,1.3007123E1,9.235662E1,2.1111246E1,6.4444633E0,6.5626593E0,1.47796545E1,7.7576965E1,1.5576411E1,5.534834E0,8.170972E0,6.608683E0,4.074554E1,3.6831425E1,1.3152735E1,2.7592808E1,2.149825E1,1.5333176E1,6.7758517E0,6.3768826E0,8.427883E0,1.3070367E1],"tree_param":{"num_deleted":"0","num_feature":"59","num_nodes":"23","size_leaf_vector":"1"}},{"base_weights":[1.4550292E-2,-4.260949E-3,8.571813E-2,-2.4324349E-1,2.3220667E-1,-6.2236493E-3,-0E0,3.1559587E-1,-2.9624694E-3,1.3068566E-1,1.43665625E-2,3.05295E-1,-1.0949237E-3,8.552519E-3,-1.3537613E-3],"categories":[],"categories_nodes":[],"categories_segments":[],"categories_sizes":[],"default_left":[0,0,0,0,0,0,0,0,0,0,0,0,0,0,0],"id":48,"left_children":[1,-1,3,5,7,-1,-1,9,-1,11,-1,13,-1,-1,-1],"loss_changes":[1.9111445E0,0E0,4.0395417E0,8.507812E-1,2.1985083E0,0E0,0E0,4.161018E0,0E0,1.6030698E0,0E0,1.9682021E0,0E0,0E0,0E0],"parents":[2147483647,0,0,2,2,3,3,4,4,7,7,9,9,11,11],"right_children":[2,-1,4,6,8,-1,-1,10,-1,12,-1,14,-1,-1,-1],"split_conditions":[1.1E1,-4.260949E-3,1E1,1E0,2.75E2,-6.2236493E-3,-0E0,1.71E2,-2.9624694E-3,1.19E2,1.43665625E-2,1.471E-1,-1.0949237E-3,8.552519E-3,-1.3537613E-3],"split_indices":[15,0,3,41,14,0,0,14,0,14,0,20,0,0,0],"split_type":[0,0,0,0,0,0,0,0,0,0,0,0,0,0,0],"sum_hessian":[8.8130264E1,1.643005E1,7.170021E1,2.0716476E1,5.0983734E1,1.4242015E1,6.4744606E0,4.3506737E1,7.4769974E0,3.4929195E1,8.577542E0,1.859274E1,1.6336456E1,1.2739486E1,5.853254E0],"tree_param":{"num_deleted":"0","num_feature":"59","num_nodes":"15","size_leaf_vector":"1"}},{"base_weights":[-5.533875E-2,-1.8056962E-1,1.24942854E-1,5.8684535E-3,-2.9643902E-1,-9.749417E-2,2.8965512E-1,-3.4425485E-1,2.0184612E-3,1.3449974E-1,-7.49611E-3,3.7483492E-1,-0E0,-4.3663603E-1,-5.42374E-2,-1.4759491E-3,6.6010705E-3,1.7293352E-1,1.1319864E-2,-1.0409164E-2,-2.3120485E-1,2.2279716E-3,-3.861468E-3,6.794521E-3,-1.2726428E-4,-7.4922647E-3,4.5609795E-3],"categories":[],"categories_nodes":[],"categories_segments":[],"categories_sizes":[],"default_left":[0,0,0,0,0,0,0,0,0,0,0,0,0,0,0,0,0,0,0,0,0,0,0,0,0,0,0],"id":49,"left_children":[1,3,5,-1,7,9,11,13,-1,15,-1,17,-1,19,21,-1,-1,23,-1,-1,25,-1,-1,-1,-1,-1,-1],"loss_changes":[3.1651332E0,5.2635617E0,2.2887456E0,0E0,1.6175618E0,2.4383612E0,8.811083E-1,1.4747953E0,0E0,1.2643383E0,0E0,1.095257E0,0E0,1.0556746E0,9.0909314E-1,0E0,0E0,1.0635924E0,0E0,0E0,3.1400042E0,0E0,0E0,0E0,0E0,0E0,0E0],"parents":[2147483647,0,0,1,1,2,2,4,4,5,5,6,6,7,7,9,9,11,11,13,13,14,14,17,17,20,20],"right_children":[2,4,6,-1,8,10,12,14,-1,16,-1,18,-1,20,22,-1,-1,24,-1,-1,26,-1,-1,-1,-1,-1,-1],"split_conditions":[1E0,7E0,2E0,5.8684535E-3,2E0,4E0,1.3E1,1E0,2.0184612E-3,1.2E1,-7.49611E-3,1E0,-0E0,4E0,1.6E1,-1.4759491E-3,6.6010705E-3,5.93E-2,1.1319864E-2,-1.0409164E-2,1E0,2.2279716E-3,-3.861468E-3,6.794521E-3,-1.2726428E-4,-7.4922647E-3,4.5609795E-3],"split_indices":[9,3,4,0,11,16,3,48,0,3,0,17,0,16,15,0,0,20,0,0,17,0,0,0,0,0,0],"split_type":[0,0,0,0,0,0,0,0,0,0,0,0,0,0,0,0,0,0,0,0,0,0,0,0,0,0,0],"sum_hessian":[1.25136566E2,7.5121666E1,5.0014896E1,1.2208332E1,6.2913338E1,2.0737604E1,2.9277292E1,5.7619946E1,5.293393E0,1.2448145E1,8.28946E0,2.2188242E1,7.0890512E0,4.163754E1,1.5982407E1,6.632432E0,5.8157125E0,1.6117296E1,6.0709453E0,1.9508371E1,2.2129166E1,6.8270946E0,9.155313E0,6.8986115E0,9.218684E0,1.6611593E1,5.5175724E0],"tree_param":{"num_deleted":"0","num_feature":"59","num_nodes":"27","size_leaf_vector":"1"}},{"base_weights":[-0E0,1.375005E-1,-3.6490434E-1,2.0806928E-1,-6.2019266E-3,-3.604806E-2,-8.370101E-3,3.5032123E-1,-1.5396083E-2,-8.346198E-3,6.409272E-3,-0E0,5.195593E-1,4.517094E-3,-1.4796752E-1,-4.430005E-3,8.09322E-3,2.2221558E-1,1.2441575E-2,-6.9851708E-3,3.3377234E-3,-1.8362073E-3,1.0610324E-2],"categories":[],"categories_nodes":[],"categories_segments":[],"categories_sizes":[],"default_left":[0,0,0,0,0,0,0,0,0,0,0,0,0,0,0,0,0,0,0,0,0,0,0],"id":50,"left_children":[1,3,5,7,-1,9,-1,11,13,-1,-1,15,17,-1,19,-1,-1,21,-1,-1,-1,-1,-1],"loss_changes":[6.7754445E0,3.7224464E0,1.167284E0,2.9441447E0,0E0,3.4127572E0,0E0,3.1826682E0,1.6098274E0,0E0,0E0,3.2641578E0,1.542429E0,0E0,2.8319297E0,0E0,0E0,3.0897298E0,0E0,0E0,0E0,0E0,0E0],"parents":[2147483647,0,0,1,1,2,2,3,3,5,5,7,7,8,8,11,11,12,12,14,14,17,17],"right_children":[2,4,6,8,-1,10,-1,12,14,-1,-1,16,18,-1,20,-1,-1,22,-1,-1,-1,-1,-1],"split_conditions":[1E0,4E0,7.4E1,4E0,-6.2019266E-3,1.2E1,-8.370101E-3,1.4E1,1E0,-8.346198E-3,6.409272E-3,7E0,1.23E2,4.517094E-3,4E0,-4.430005E-3,8.09322E-3,1E0,1.2441575E-2,-6.9851708E-3,3.3377234E-3,-1.8362073E-3,1.0610324E-2],"split_indices":[29,19,14,4,0,3,0,1,33,0,0,5,14,0,5,0,0,39,0,0,0,0,0],"split_type":[0,0,0,0,0,0,0,0,0,0,0,0,0,0,0,0,0,0,0,0,0,0,0],"sum_hessian":[1.22705345E2,9.075532E1,3.1950027E1,8.143979E1,9.31553E0,1.0020866E1,2.1929161E1,4.9893654E1,3.1546133E1,5.0047326E0,5.016134E0,1.7388054E1,3.25056E1,8.489367E0,2.3056767E1,1.1845286E1,5.5427675E0,1.5852651E1,1.6652948E1,1.3617214E1,9.439553E0,9.080267E0,6.772384E0],"tree_param":{"num_deleted":"0","num_feature":"59","num_nodes":"23","size_leaf_vector":"1"}},{"base_weights":[-2.7566887E-2,8.613465E-2,-5.803176E-3,-5.6598347E-2,3.620432E-1,-4.01934E-3,2.1139583E-1,-2.818612E-3,6.215485E-1,1.0047953E-2,-2.6847478E-2,1.7045712E-2,-0E0,3.1657028E-3,-4.78183E-3],"categories":[],"categories_nodes":[],"categories_segments":[],"categories_sizes":[],"default_left":[0,0,0,0,0,0,0,0,0,0,0,0,0,0,0],"id":51,"left_children":[1,3,-1,5,7,-1,9,-1,11,-1,13,-1,-1,-1,-1],"loss_changes":[3.783881E0,3.220625E0,0E0,2.6705623E0,4.2321863E0,0E0,2.2399535E0,0E0,4.599642E0,0E0,1.2052412E0,0E0,0E0,0E0,0E0],"parents":[2147483647,0,0,1,1,3,3,4,4,6,6,8,8,10,10],"right_children":[2,4,-1,6,8,-1,10,-1,12,-1,14,-1,-1,-1,-1],"split_conditions":[1.25E-1,1E0,-5.803176E-3,7.41E-2,1E1,-4.01934E-3,3E0,-2.818612E-3,1.4E1,1.0047953E-2,1.2E1,1.7045712E-2,-0E0,3.1657028E-3,-4.78183E-3],"split_indices":[20,51,0,20,3,0,16,0,3,0,3,0,0,0,0],"split_type":[0,0,0,0,0,0,0,0,0,0,0,0,0,0,0],"sum_hessian":[9.2763435E1,6.801395E1,2.474949E1,4.5308506E1,2.2705442E1,2.8634811E1,1.6673695E1,7.3669767E0,1.5338466E1,5.7385535E0,1.0935142E1,9.170865E0,6.1676006E0,5.4631643E0,5.471977E0],"tree_param":{"num_deleted":"0","num_feature":"59","num_nodes":"15","size_leaf_vector":"1"}},{"base_weights":[-2.4974998E-3,-7.382899E-2,2.9221082E-1,-6.472081E-3,-1.3238469E-2,5.3726435E-1,-3.5656116E-3,6.594729E-3,-7.118096E-2,1.3702203E-2,3.493426E-3,-2.0755479E-1,1.6749866E-3,-3.17968E-1,-0E0,-7.488429E-3,3.872894E-4,6.505272E-3,-5.6307577E-3],"categories":[],"categories_nodes":[],"categories_segments":[],"categories_sizes":[],"default_left":[0,0,0,0,0,0,0,0,0,0,0,0,0,0,0,0,0,0,0],"id":52,"left_children":[1,3,5,-1,7,9,-1,-1,11,-1,-1,13,-1,15,17,-1,-1,-1,-1],"loss_changes":[2.7975435E0,1.8841146E0,3.578145E0,0E0,2.270172E0,9.2823935E-1,0E0,0E0,2.0836065E0,0E0,0E0,1.1092904E0,0E0,1.4005053E0,3.1237843E0,0E0,0E0,0E0,0E0],"parents":[2147483647,0,0,1,1,2,2,4,4,5,5,8,8,11,11,13,13,14,14],"right_children":[2,4,6,-1,8,10,-1,-1,12,-1,-1,14,-1,16,18,-1,-1,-1,-1],"split_conditions":[5E1,1E1,1E0,-6.472081E-3,6E0,4E0,-3.5656116E-3,6.594729E-3,1E0,1.3702203E-2,3.493426E-3,1E0,1.6749866E-3,1E0,1.7E1,-7.488429E-3,3.872894E-4,6.505272E-3,-5.6307577E-3],"split_indices":[1,15,51,0,3,5,0,0,9,0,0,40,0,7,15,0,0,0,0],"split_type":[0,0,0,0,0,0,0,0,0,0,0,0,0,0,0,0,0,0,0],"sum_hessian":[1.1811403E2,9.780073E1,2.0313297E1,1.3153328E1,8.46474E1,1.397581E1,6.337487E0,8.135861E0,7.651154E1,5.3344617E0,8.641348E0,4.30461E1,3.346544E1,2.6903639E1,1.6142462E1,2.064949E1,6.2541485E0,7.17794E0,8.964522E0],"tree_param":{"num_deleted":"0","num_feature":"59","num_nodes":"19","size_leaf_vector":"1"}},{"base_weights":[3.4128625E-2,1.0330714E-1,-1.8031292E-1,2.4841121E-1,-8.642093E-2,-6.9248704E-3,1.254153E-1,3.4016812E-1,5.1407802E-5,-4.3677709E-1,1.3215192E-1,7.4239206E-3,-2.9615443E-3,-1.1059474E-3,7.962394E-3,5.272264E-3,-4.221816E-3,-1.5231369E-3,-1.0327429E-2,3.849843E-1,-9.190951E-4,1.0185224E-2,-0E0],"categories":[],"categories_nodes":[],"categories_segments":[],"categories_sizes":[],"default_left":[0,0,0,0,0,0,0,0,0,0,0,0,0,0,0,0,0,0,0,0,0,0,0],"id":53,"left_children":[1,3,5,7,9,-1,11,13,15,17,19,-1,-1,-1,-1,-1,-1,-1,-1,21,-1,-1,-1],"loss_changes":[2.1751232E0,3.137681E0,2.60753E0,1.3108547E0,4.1349764E0,0E0,1.9389757E0,2.3634605E0,2.1105132E0,7.9536605E-1,1.7967274E0,0E0,0E0,0E0,0E0,0E0,0E0,0E0,0E0,1.0437937E0,0E0,0E0,0E0],"parents":[2147483647,0,0,1,1,2,2,3,3,4,4,6,6,7,7,8,8,9,9,10,10,19,19],"right_children":[2,4,6,8,10,-1,12,14,16,18,20,-1,-1,-1,-1,-1,-1,-1,-1,22,-1,-1,-1],"split_conditions":[4E0,1E0,3E0,2.1E1,2E0,-6.9248704E-3,4E0,9E0,7.41E-2,6.9E-2,1E1,7.4239206E-3,-2.9615443E-3,-1.1059474E-3,7.962394E-3,5.272264E-3,-4.221816E-3,-1.5231369E-3,-1.0327429E-2,2E0,-9.190951E-4,1.0185224E-2,-0E0],"split_indices":[6,2,25,15,16,0,16,3,20,20,3,0,0,0,0,0,0,0,0,11,0,0,0],"split_type":[0,0,0,0,0,0,0,0,0,0,0,0,0,0,0,0,0,0,0,0,0,0,0],"sum_hessian":[1.2937633E2,1.00261635E2,2.9114695E1,5.7506668E1,4.2754967E1,1.7348204E1,1.176649E1,4.0110157E1,1.7396513E1,1.607525E1,2.6679714E1,5.9064546E0,5.860035E0,8.433168E0,3.1676989E1,8.15909E0,9.237423E0,6.9893284E0,9.085922E0,1.0918954E1,1.576076E1,5.8602476E0,5.0587063E0],"tree_param":{"num_deleted":"0","num_feature":"59","num_nodes":"23","size_leaf_vector":"1"}},{"base_weights":[-0E0,9.0385966E-2,-2.5434473E-1,1.9832867E-1,-1.4183205E-1,-0E0,-6.7635295E-3,8.30128E-3,9.351381E-3,-5.2767606E-3,1.240923E-3,5.496041E-3,-1.3055626E-1,-6.4016487E-3,-4.6113288E-5],"categories":[],"categories_nodes":[],"categories_segments":[],"categories_sizes":[],"default_left":[0,0,0,0,0,0,0,0,0,0,0,0,0,0,0],"id":54,"left_children":[1,3,5,7,9,-1,-1,11,-1,-1,-1,-1,13,-1,-1],"loss_changes":[2.4052703E0,2.0268917E0,8.7306476E-1,3.2102075E0,1.0910488E0,0E0,0E0,2.0177944E0,0E0,0E0,0E0,0E0,7.989663E-1,0E0,0E0],"parents":[2147483647,0,0,1,1,2,2,3,3,4,4,7,7,12,12],"right_children":[2,4,6,8,10,-1,-1,12,-1,-1,-1,-1,14,-1,-1],"split_conditions":[4E1,5E0,2E0,1E0,1E0,-0E0,-6.7635295E-3,1E0,9.351381E-3,-5.2767606E-3,1.240923E-3,5.496041E-3,1.70642E5,-6.4016487E-3,-4.6113288E-5],"split_indices":[1,4,6,43,8,0,0,49,0,0,0,0,0,0,0],"split_type":[0,0,0,0,0,0,0,0,0,0,0,0,0,0,0],"sum_hessian":[8.7996056E1,6.642773E1,2.1568335E1,4.6769253E1,1.9658472E1,8.64644E0,1.2921895E1,3.24107E1,1.4358549E1,1.1624613E1,8.033858E0,9.92604E0,2.2484663E1,5.0590687E0,1.7425594E1],"tree_param":{"num_deleted":"0","num_feature":"59","num_nodes":"15","size_leaf_vector":"1"}},{"base_weights":[-2.6499614E-2,-1.4194062E-1,1.8015069E-1,-2.0720655E-1,1.5229388E-1,-5.5573802E-2,4.8920453E-1,-6.235788E-2,-9.0494435E-3,8.168894E-3,-3.0893725E-3,8.051255E-3,-7.0201484E-3,2.5733756E-3,1.1430339E-2,-1.9242053E-1,1.4238521E-1,-3.375444E-1,2.6841108E-3,9.003403E-3,-2.4850364E-3,-0E0,-8.350205E-3],"categories":[],"categories_nodes":[],"categories_segments":[],"categories_sizes":[],"default_left":[0,0,0,0,0,0,0,0,0,0,0,0,0,0,0,0,0,0,0,0,0,0,0],"id":55,"left_children":[1,3,5,7,9,11,13,15,-1,-1,-1,-1,-1,-1,-1,17,19,21,-1,-1,-1,-1,-1],"loss_changes":[3.133306E0,1.8004276E0,3.6440372E0,2.9971561E0,2.2637498E0,5.747515E0,7.677951E-1,1.6313549E0,0E0,0E0,0E0,0E0,0E0,0E0,0E0,2.0896344E0,2.8367786E0,1.4118683E0,0E0,0E0,0E0,0E0,0E0],"parents":[2147483647,0,0,1,1,2,2,3,3,4,4,5,5,6,6,7,7,15,15,16,16,17,17],"right_children":[2,4,6,8,10,12,14,16,-1,-1,-1,-1,-1,-1,-1,18,20,22,-1,-1,-1,-1,-1],"split_conditions":[4E0,5E1,2.6E1,2.5E1,6.9E1,1E1,1E0,1E0,-9.0494435E-3,8.168894E-3,-3.0893725E-3,8.051255E-3,-7.0201484E-3,2.5733756E-3,1.1430339E-2,1.91E2,4.94E-2,1.1E1,2.6841108E-3,9.003403E-3,-2.4850364E-3,-0E0,-8.350205E-3],"split_indices":[4,1,1,1,1,3,41,43,0,0,0,0,0,0,0,14,20,15,0,0,0,0,0],"split_type":[0,0,0,0,0,0,0,0,0,0,0,0,0,0,0,0,0,0,0,0,0,0,0],"sum_hessian":[1.1665526E2,7.660456E1,4.0050697E1,6.4442116E1,1.2162443E1,2.3262228E1,1.678847E1,4.701858E1,1.7423532E1,6.2400913E0,5.922352E0,8.521859E0,1.474037E1,7.8960395E0,8.89243E0,3.002239E1,1.6996191E1,2.1994076E1,8.028315E0,7.0047197E0,9.991472E0,6.6601086E0,1.5333968E1],"tree_param":{"num_deleted":"0","num_feature":"59","num_nodes":"23","size_leaf_vector":"1"}},{"base_weights":[-6.910744E-2,3.731063E-1,-1.3826148E-1,-1.4131624E-3,1.34050315E-2,-1.8255319E-1,6.0489494E-3,1.0141581E-1,-2.612263E-1,-2.15278E-3,5.4974775E-3,-1.3882725E-1,-4.026183E-1,-3.4113908E-1,7.33052E-2,-0E0,-5.0724757E-1,-9.236908E-3,6.258649E-4,5.2752993E-3,-2.9584747E-3,-1.1743104E-2,-2.284316E-3],"categories":[],"categories_nodes":[],"categories_segments":[],"categories_sizes":[],"default_left":[0,0,0,0,0,0,0,0,0,0,0,0,0,0,0,0,0,0,0,0,0,0,0],"id":56,"left_children":[1,3,5,-1,-1,7,-1,9,11,-1,-1,13,15,17,19,-1,21,-1,-1,-1,-1,-1,-1],"loss_changes":[4.064708E0,3.7032452E0,2.6979954E0,0E0,0E0,2.5122387E0,0E0,1.5240856E0,1.2447314E0,0E0,0E0,2.475377E0,1.4161329E0,2.2760785E0,1.8881867E0,0E0,1.3400111E0,0E0,0E0,0E0,0E0,0E0,0E0],"parents":[2147483647,0,0,1,1,2,2,5,5,7,7,8,8,11,11,12,12,13,13,14,14,16,16],"right_children":[2,4,6,-1,-1,8,-1,10,12,-1,-1,14,16,18,20,-1,22,-1,-1,-1,-1,-1,-1],"split_conditions":[1E1,1.2E1,9.2E1,-1.4131624E-3,1.34050315E-2,1.70642E5,6.0489494E-3,1E0,1.57E2,-2.15278E-3,5.4974775E-3,1.5E1,8E0,1E0,1E0,-0E0,3E0,-9.236908E-3,6.258649E-4,5.2752993E-3,-2.9584747E-3,-1.1743104E-2,-2.284316E-3],"split_indices":[15,3,1,0,0,0,0,16,14,0,0,15,3,51,28,0,6,0,0,0,0,0,0],"split_type":[0,0,0,0,0,0,0,0,0,0,0,0,0,0,0,0,0,0,0,0,0,0,0],"sum_hessian":[1.1732122E2,1.3490242E1,1.0383098E2,6.8035984E0,6.686643E0,9.7417366E1,6.413612E0,1.9884527E1,7.753284E1,9.342685E0,1.0541842E1,4.5918945E1,3.1613892E1,2.3605282E1,2.2313662E1,7.5135255E0,2.4100367E1,1.5737893E1,7.8673897E0,1.1981085E1,1.0332578E1,1.45718775E1,9.528489E0],"tree_param":{"num_deleted":"0","num_feature":"59","num_nodes":"23","size_leaf_vector":"1"}},{"base_weights":[-6.3528838E-3,-1.2199631E-1,2.2450992E-1,-2.694013E-1,4.091229E-2,4.7403708E-1,-4.3512145E-3,-6.616E-3,7.0794456E-4,1.771654E-1,-4.6031405E-3,1.1553557E-2,-0E0,3.404391E-1,-1.2287967E-3,1.061088E-2,-0E0],"categories":[],"categories_nodes":[],"categories_segments":[],"categories_sizes":[],"default_left":[0,0,0,0,0,0,0,0,0,0,0,0,0,0,0,0,0],"id":57,"left_children":[1,3,5,7,9,11,-1,-1,-1,13,-1,-1,-1,15,-1,-1,-1],"loss_changes":[2.9118063E0,1.9010012E0,4.633475E0,1.5531833E0,1.7907089E0,2.051148E0,0E0,0E0,0E0,1.387328E0,0E0,0E0,0E0,1.8156033E0,0E0,0E0,0E0],"parents":[2147483647,0,0,1,1,2,2,3,3,4,4,5,5,9,9,13,13],"right_children":[2,4,6,8,10,12,-1,-1,-1,14,-1,-1,-1,16,-1,-1,-1],"split_conditions":[1.62E2,1.9E1,4E1,1E0,5.4E1,1E0,-4.3512145E-3,-6.616E-3,7.0794456E-4,2E0,-4.6031405E-3,1.1553557E-2,-0E0,1E0,-1.2287967E-3,1.061088E-2,-0E0],"split_indices":[14,1,1,42,1,42,0,0,0,10,0,0,0,17,0,0,0],"split_type":[0,0,0,0,0,0,0,0,0,0,0,0,0,0,0,0,0],"sum_hessian":[9.51045E1,6.534515E1,2.9759354E1,3.4637337E1,3.0707811E1,2.0027107E1,9.732245E0,2.6112093E1,8.525246E0,2.2879305E1,7.8285065E0,1.3348512E1,6.678595E0,1.4124571E1,8.754735E0,6.948172E0,7.176399E0],"tree_param":{"num_deleted":"0","num_feature":"59","num_nodes":"17","size_leaf_vector":"1"}},{"base_weights":[3.525788E-2,3.4566528E-1,-2.8239986E-2,-0E0,1.00174295E-2,-1.1319293E-1,1.22198485E-1,-1.8526053E-1,1.7824441E-1,2.769711E-1,-2.8841072E-3,-2.6288062E-1,3.3600242E-3,-1.9838756E-3,7.872249E-3,6.434896E-2,9.968416E-3,-3.7486985E-1,-0E0,-4.8518153E-3,5.0401124E-3,-0E0,-8.880193E-3],"categories":[],"categories_nodes":[],"categories_segments":[],"categories_sizes":[],"default_left":[0,0,0,0,0,0,0,0,0,0,0,0,0,0,0,0,0,0,0,0,0,0,0],"id":58,"left_children":[1,3,5,-1,-1,7,9,11,13,15,-1,17,-1,-1,-1,19,-1,21,-1,-1,-1,-1,-1],"loss_changes":[2.7063189E0,1.7260947E0,1.4476681E0,0E0,0E0,1.6671407E0,1.9728167E0,1.9885216E0,1.6294756E0,1.4678125E0,0E0,1.5616128E0,0E0,0E0,0E0,1.9999046E0,0E0,1.8264179E0,0E0,0E0,0E0,0E0,0E0],"parents":[2147483647,0,0,1,1,2,2,5,5,6,6,7,7,8,8,9,9,11,11,15,15,17,17],"right_children":[2,4,6,-1,-1,8,10,12,14,16,-1,18,-1,-1,-1,20,-1,22,-1,-1,-1,-1,-1],"split_conditions":[1.2047329E1,5E0,3.6E1,-0E0,1.00174295E-2,1.5E1,1.3E1,6E0,1E0,1E0,-2.8841072E-3,1E0,3.3600242E-3,-1.9838756E-3,7.872249E-3,2E0,9.968416E-3,1E1,-0E0,-4.8518153E-3,5.0401124E-3,-0E0,-8.880193E-3],"split_indices":[26,1,1,0,0,3,3,4,51,8,0,29,0,0,0,6,0,1,0,0,0,0,0],"split_type":[0,0,0,0,0,0,0,0,0,0,0,0,0,0,0,0,0,0,0,0,0,0,0],"sum_hessian":[1.1349463E2,1.8277456E1,9.521717E1,8.63551E0,9.641945E0,6.2945217E1,3.2271954E1,5.2334118E1,1.0611097E1,2.1918856E1,1.0353099E1,4.4950333E1,7.3837876E0,5.187976E0,5.423121E0,1.5394978E1,6.5238776E0,3.1216883E1,1.373345E1,5.1449003E0,1.0250077E1,8.776461E0,2.2440422E1],"tree_param":{"num_deleted":"0","num_feature":"59","num_nodes":"23","size_leaf_vector":"1"}},{"base_weights":[-3.1225018E-2,-1.3906938E-1,1.678919E-1,-0E0,-3.2800117E-1,3.5884598E-1,-1.5578075E-1,1.8517965E-1,-8.9879915E-2,1.6466404E-3,-4.4638732E-1,-8.950745E-4,9.073667E-3,-9.209296E-3,7.592881E-3,-2.9422229E-3,1.1703896E-2,-8.3308965E-3,5.3947598E-2,-0E0,-9.359267E-3,6.77958E-3,-7.904207E-2,-4.6152878E-3,5.346147E-3],"categories":[],"categories_nodes":[],"categories_segments":[],"categories_sizes":[],"default_left":[0,0,0,0,0,0,0,0,0,0,0,0,0,0,0,0,0,0,0,0,0,0,0,0,0],"id":59,"left_children":[1,3,5,7,9,11,13,15,17,-1,19,-1,-1,-1,-1,-1,-1,-1,21,-1,-1,-1,23,-1,-1],"loss_changes":[3.2407749E0,2.5672948E0,3.5056713E0,1.1912303E0,2.3739295E0,2.532185E0,5.4812093E0,4.2808237E0,2.7915027E0,0E0,1.1660476E0,0E0,0E0,0E0,0E0,0E0,0E0,0E0,1.8893597E0,0E0,0E0,0E0,2.2488337E0,0E0,0E0],"parents":[2147483647,0,0,1,1,2,2,3,3,4,4,5,5,6,6,7,7,8,8,10,10,18,18,22,22],"right_children":[2,4,6,8,10,12,14,16,18,-1,20,-1,-1,-1,-1,-1,-1,-1,22,-1,-1,-1,24,-1,-1],"split_conditions":[1.3E1,1E0,1.45E2,1.04E2,5E0,1E0,3.8E1,8.9E1,1.23E2,1.6466404E-3,8E0,-8.950745E-4,9.073667E-3,-9.209296E-3,7.592881E-3,-2.9422229E-3,1.1703896E-2,-8.3308965E-3,1.4E2,-0E0,-9.359267E-3,6.77958E-3,4E1,-4.6152878E-3,5.346147E-3],"split_indices":[3,8,14,14,1,19,1,14,14,0,3,0,0,0,0,0,0,0,14,0,0,0,1,0,0],"split_type":[0,0,0,0,0,0,0,0,0,0,0,0,0,0,0,0,0,0,0,0,0,0,0,0,0],"sum_hessian":[1.357353E2,8.9853E1,4.5882317E1,5.343402E1,3.6418976E1,2.9433287E1,1.6449028E1,1.6381525E1,3.7052494E1,7.3725243E0,2.9046452E1,8.0999775E0,2.133331E1,1.0685092E1,5.7639365E0,1.0024154E1,6.3573723E0,9.084812E0,2.7967682E1,5.855381E0,2.319107E1,7.327245E0,2.0640436E1,1.5201968E1,5.438468E0],"tree_param":{"num_deleted":"0","num_feature":"59","num_nodes":"25","size_leaf_vector":"1"}},{"base_weights":[-1.7678525E-2,4.2854063E-2,-5.8742124E-3,-1.4927985E-1,1.2945732E-1,-4.9677864E-3,2.5870248E-3,3.8342422E-1,-0E0,4.2644428E-4,9.830827E-3,-1.8503559E-1,1.9215868E-1,-6.3369297E-3,-0E0,8.442204E-3,-5.2756458E-3],"categories":[],"categories_nodes":[],"categories_segments":[],"categories_sizes":[],"default_left":[0,0,0,0,0,0,0,0,0,0,0,0,0,0,0,0,0],"id":60,"left_children":[1,3,-1,5,7,-1,-1,9,11,-1,-1,13,15,-1,-1,-1,-1],"loss_changes":[2.219151E0,1.545283E0,0E0,1.3682573E0,2.1195755E0,0E0,0E0,1.1518371E0,1.8301599E0,0E0,0E0,7.840572E-1,3.9379787E0,0E0,0E0,0E0,0E0],"parents":[2147483647,0,0,1,1,3,3,4,4,7,7,8,8,11,11,12,12],"right_children":[2,4,-1,6,8,-1,-1,10,12,-1,-1,14,16,-1,-1,-1,-1],"split_conditions":[6E0,1E1,-5.8742124E-3,1E0,4.17E-2,-4.9677864E-3,2.5870248E-3,2.98373E5,1E0,4.2644428E-4,9.830827E-3,9.68E-2,5E0,-6.3369297E-3,-0E0,8.442204E-3,-5.2756458E-3],"split_indices":[4,3,0,29,20,0,0,0,2,0,0,20,5,0,0,0,0],"split_type":[0,0,0,0,0,0,0,0,0,0,0,0,0,0,0,0,0],"sum_hessian":[8.978904E1,7.637966E1,1.340938E1,2.1717287E1,5.4662376E1,1.5926441E1,5.790846E0,1.689643E1,3.7765945E1,7.3716273E0,9.524802E0,1.9528984E1,1.8236961E1,7.9947634E0,1.1534221E1,1.2016421E1,6.2205396E0],"tree_param":{"num_deleted":"0","num_feature":"59","num_nodes":"17",